{"learner":{"attributes":{"scikit_learn":"{\"_estimator_type\": \"regressor\"}"},"feature_names":["application_month","years_since_start","application_dayofweek","visa_avg_processing_time","country_avg_processing_time","state_avg_processing_time","season_off-peak"],"feature_types":["int","int","int","float","float","float","i"],"gradient_booster":{"model":{"cats":{"enc":[],"feature_segments":[],"sorted_idx":[]},"gbtree_model_param":{"num_parallel_tree":"1","num_trees":"100"},"iteration_indptr":[0,1,2,3,4,5,6,7,8,9,10,11,12,13,14,15,16,17,18,19,20,21,22,23,24,25,26,27,28,29,30,31,32,33,34,35,36,37,38,39,40,41,42,43,44,45,46,47,48,49,50,51,52,53,54,55,56,57,58,59,60,61,62,63,64,65,66,67,68,69,70,71,72,73,74,75,76,77,78,79,80,81,82,83,84,85,86,87,88,89,90,91,92,93,94,95,96,97,98,99,100],"tree_info":[0,0,0,0,0,0,0,0,0,0,0,0,0,0,0,0,0,0,0,0,0,0,0,0,0,0,0,0,0,0,0,0,0,0,0,0,0,0,0,0,0,0,0,0,0,0,0,0,0,0,0,0,0,0,0,0,0,0,0,0,0,0,0,0,0,0,0,0,0,0,0,0,0,0,0,0,0,0,0,0,0,0,0,0,0,0,0,0,0,0,0,0,0,0,0,0,0,0,0,0],"trees":[{"base_weights":[-7.313893E-7,-8.166649E0,1.343581E2,6.221685E0,-9.682205E0,1.3743338E2,-6.9218693E0,2.1392572E2,-1.0218457E1,-8.0451145E0,-1.5180744E1,2.117084E2,1.358705E2,-2.4537826E0,-1.6923944E1,2.3536496E2,1.5347305E2,2.835491E1,-1.0634734E1,-5.55848E0,-9.863152E0,-1.6530996E1,-1.4870036E1,2.7562262E1,2.0440481E1,1.3299509E2,1.4722388E2,1.5631006E0,-7.7859073E0,-1.26665945E1,-1.8850021E0,2.6479094E1,2.1677216E1,6.2037377E0,1.7322794E1,-1.4015127E0,-7.0897156E-1,-8.4086955E-1,-4.1187176E-1,-6.929484E-1,-1.2313511E0,-1.6097376E0,-1.6747929E0,-1.4805363E0,-1.649481E0,1.4190307E1,1.3166278E1,2.3469124E1,1.46868305E1,2.9003745E-1,-1.4529351E0,-1.8533865E0,-3.5713542E-1,-9.6273804E-1,-1.6067162E0],"categories":[],"categories_nodes":[],"categories_segments":[],"categories_sizes":[],"default_left":[0,0,0,0,0,0,0,0,0,0,0,0,0,0,0,0,0,0,0,0,0,0,0,0,0,0,0,0,0,0,0,0,0,0,0,0,0,0,0,0,0,0,0,0,0,0,0,0,0,0,0,0,0,0,0],"id":0,"left_children":[1,3,5,7,9,11,13,15,17,19,21,23,25,27,29,31,33,-1,35,37,39,41,43,-1,-1,45,47,49,51,53,-1,-1,-1,-1,-1,-1,-1,-1,-1,-1,-1,-1,-1,-1,-1,-1,-1,-1,-1,-1,-1,-1,-1,-1,-1],"loss_changes":[1.39369E8,2.611106E6,3.163064E6,3.8967144E7,9.75004E5,7.98096E5,6.9301343E3,1.04868E6,1.2962164E6,3.77327E5,1.01805E4,1.1348E4,2.08248E5,2.3467888E3,1.5483301E2,2.7962E5,3.902525E5,0E0,1.26458875E5,1.4465125E5,3.46546E5,1.66875E2,1.8795E3,0E0,0E0,4.7536E4,9.104E3,1.3979012E3,2.0628079E3,3.1346191E1,0E0,0E0,0E0,0E0,0E0,0E0,0E0,0E0,0E0,0E0,0E0,0E0,0E0,0E0,0E0,0E0,0E0,0E0,0E0,0E0,0E0,0E0,0E0,0E0,0E0],"parents":[2147483647,0,0,1,1,2,2,3,3,4,4,5,5,6,6,7,7,8,8,9,9,10,10,11,11,12,12,13,13,14,14,15,15,16,16,18,18,19,19,20,20,21,21,22,22,25,25,26,26,27,27,28,28,29,29],"right_children":[2,4,6,8,10,12,14,16,18,20,22,24,26,28,30,32,34,-1,36,38,40,42,44,-1,-1,46,48,50,52,54,-1,-1,-1,-1,-1,-1,-1,-1,-1,-1,-1,-1,-1,-1,-1,-1,-1,-1,-1,-1,-1,-1,-1,-1,-1],"split_conditions":[1.5578824E2,3E0,5E0,9E0,5E0,5E0,5E0,7E0,1E0,4E0,1E0,2E0,1.1E1,3E0,6E0,4E0,2E0,2.835491E1,2E0,1.4972902E1,4E0,3E0,6E0,2.7562262E1,2.0440481E1,6E0,4E0,1.5874243E2,1.5583891E2,3E0,-1.8850021E0,2.6479094E1,2.1677216E1,6.2037377E0,1.7322794E1,-1.4015127E0,-7.0897156E-1,-8.4086955E-1,-4.1187176E-1,-6.929484E-1,-1.2313511E0,-1.6097376E0,-1.6747929E0,-1.4805363E0,-1.649481E0,1.4190307E1,1.3166278E1,2.3469124E1,1.46868305E1,2.9003745E-1,-1.4529351E0,-1.8533865E0,-3.5713542E-1,-9.6273804E-1,-1.6067162E0],"split_indices":[3,1,1,0,1,0,0,0,1,0,2,0,0,2,0,0,1,0,1,5,1,0,2,0,0,0,1,4,4,2,0,0,0,0,0,0,0,0,0,0,0,0,0,0,0,0,0,0,0,0,0,0,0,0,0],"split_type":[0,0,0,0,0,0,0,0,0,0,0,0,0,0,0,0,0,0,0,0,0,0,0,0,0,0,0,0,0,0,0,0,0,0,0,0,0,0,0,0,0,0,0,0,0,0,0,0,0,0,0,0,0,0,0],"sum_hessian":[1.27014E5,1.19737E5,7.277E3,1.141E4,1.08327E5,7.122E3,1.55E2,8.36E2,1.0574E4,8.3476E4,2.4851E4,1.44E2,6.978E3,1.08E2,4.7E1,6.15E2,2.21E2,1.4E1,1.056E4,3.5257E4,4.8219E4,4.639E3,2.0212E4,1.1E1,1.33E2,5.578E3,1.4E3,6.2E1,4.6E1,1.7E1,3E1,2.33E2,3.82E2,4E1,1.81E2,5.404E3,5.156E3,1.1831E4,2.3426E4,2.1947E4,2.6272E4,1.572E3,3.067E3,1.9448E4,7.64E2,7.12E2,4.866E3,3E0,1.397E3,5.8E1,4E0,1.2E1,3.4E1,1.1E1,6E0],"tree_param":{"num_deleted":"0","num_feature":"7","num_nodes":"55","size_leaf_vector":"1"}},{"base_weights":[1.5268209E-3,-7.3492465E0,1.209368E2,5.6080976E0,-8.714073E0,1.2370598E2,-6.2798605E0,1.9261879E2,-9.194131E0,-7.240641E0,-1.3662929E1,1.908686E2,1.2229284E2,-2.2393525E0,-1.5324351E1,2.2006294E2,1.5361362E2,2.570845E1,-9.571461E0,-5.002668E0,-8.876876E0,-1.4878604E1,-1.3383188E1,2.5035723E1,1.8411688E1,1.19700485E2,1.3252872E2,1.3883327E0,-7.0543485E0,-1.1542682E1,-1.7025826E0,2.5351347E1,2.0909952E1,6.944381E0,1.7120012E1,-1.2613875E0,-6.3808817E-1,-7.567896E-1,-3.7068644E-1,-6.2365663E-1,-1.1082206E0,-1.4488662E0,-1.5073682E0,-1.329099E0,-1.4372412E0,1.2773266E1,1.184992E1,2.170894E1,1.3219197E1,2.615254E-1,-1.3367003E0,-1.6823047E0,-3.2244217E-1,-8.744871E-1,-1.4689976E0],"categories":[],"categories_nodes":[],"categories_segments":[],"categories_sizes":[],"default_left":[0,0,0,0,0,0,0,0,0,0,0,0,0,0,0,0,0,0,0,0,0,0,0,0,0,0,0,0,0,0,0,0,0,0,0,0,0,0,0,0,0,0,0,0,0,0,0,0,0,0,0,0,0,0,0],"id":1,"left_children":[1,3,5,7,9,11,13,15,17,19,21,23,25,27,29,31,33,-1,35,37,39,41,43,-1,-1,45,47,49,51,53,-1,-1,-1,-1,-1,-1,-1,-1,-1,-1,-1,-1,-1,-1,-1,-1,-1,-1,-1,-1,-1,-1,-1,-1,-1],"loss_changes":[1.1291314E8,2.117559E6,2.564704E6,3.1589416E7,7.89807E5,6.52704E5,5.6666016E3,8.62174E5,1.0649839E6,3.05636E5,8.253E3,1.2145E4,1.69328E5,1.9137283E3,1.1232715E2,1.26322E5,5.047195E5,0E0,1.0243581E5,1.1717069E5,2.80704E5,1.34625E2,1.6525E3,0E0,0E0,3.8696E4,1.1198E4,1.1754869E3,1.7041853E3,3.0037598E1,0E0,0E0,0E0,0E0,0E0,0E0,0E0,0E0,0E0,0E0,0E0,0E0,0E0,0E0,0E0,0E0,0E0,0E0,0E0,0E0,0E0,0E0,0E0,0E0,0E0],"parents":[2147483647,0,0,1,1,2,2,3,3,4,4,5,5,6,6,7,7,8,8,9,9,10,10,11,11,12,12,13,13,14,14,15,15,16,16,18,18,19,19,20,20,21,21,22,22,25,25,26,26,27,27,28,28,29,29],"right_children":[2,4,6,8,10,12,14,16,18,20,22,24,26,28,30,32,34,-1,36,38,40,42,44,-1,-1,46,48,50,52,54,-1,-1,-1,-1,-1,-1,-1,-1,-1,-1,-1,-1,-1,-1,-1,-1,-1,-1,-1,-1,-1,-1,-1,-1,-1],"split_conditions":[1.5578824E2,3E0,5E0,9E0,5E0,5E0,5E0,6E0,1E0,4E0,1E0,2E0,1.1E1,3E0,6E0,3E0,2E0,2.570845E1,2E0,1.4972902E1,4E0,3E0,5E0,2.5035723E1,1.8411688E1,6E0,4E0,1.5874243E2,1.5583891E2,3E0,-1.7025826E0,2.5351347E1,2.0909952E1,6.944381E0,1.7120012E1,-1.2613875E0,-6.3808817E-1,-7.567896E-1,-3.7068644E-1,-6.2365663E-1,-1.1082206E0,-1.4488662E0,-1.5073682E0,-1.329099E0,-1.4372412E0,1.2773266E1,1.184992E1,2.170894E1,1.3219197E1,2.615254E-1,-1.3367003E0,-1.6823047E0,-3.2244217E-1,-8.744871E-1,-1.4689976E0],"split_indices":[3,1,1,0,1,0,0,0,1,0,2,0,0,2,0,0,1,0,1,5,1,0,2,0,0,0,1,4,4,2,0,0,0,0,0,0,0,0,0,0,0,0,0,0,0,0,0,0,0,0,0,0,0,0,0],"split_type":[0,0,0,0,0,0,0,0,0,0,0,0,0,0,0,0,0,0,0,0,0,0,0,0,0,0,0,0,0,0,0,0,0,0,0,0,0,0,0,0,0,0,0,0,0,0,0,0,0,0,0,0,0,0,0],"sum_hessian":[1.27014E5,1.19737E5,7.277E3,1.141E4,1.08327E5,7.122E3,1.55E2,8.36E2,1.0574E4,8.3476E4,2.4851E4,1.44E2,6.978E3,1.08E2,4.7E1,4.88E2,3.48E2,1.4E1,1.056E4,3.5257E4,4.8219E4,4.639E3,2.0212E4,1.1E1,1.33E2,5.578E3,1.4E3,6.2E1,4.6E1,1.7E1,3E1,1.15E2,3.73E2,6.1E1,2.87E2,5.404E3,5.156E3,1.1831E4,2.3426E4,2.1947E4,2.6272E4,1.572E3,3.067E3,1.8502E4,1.71E3,7.12E2,4.866E3,3E0,1.397E3,5.8E1,4E0,1.2E1,3.4E1,1.1E1,6E0],"tree_param":{"num_deleted":"0","num_feature":"7","num_nodes":"55","size_leaf_vector":"1"}},{"base_weights":[2.8025084E-3,-6.6136074E0,1.0885629E2,5.0555367E0,-7.842745E0,1.1134984E2,-5.697554E0,1.7344093E2,-8.272467E0,-6.516611E0,-1.2296865E1,1.7208139E2,1.1007209E2,-2.0436738E0,-1.3876208E1,1.9132974E2,1.2302227E2,2.3308996E1,-8.614495E0,-4.5024333E0,-7.9892235E0,-1.339138E1,-1.2045006E1,2.2740782E1,1.6584259E1,1.0773485E2,1.19300766E2,6.269031E0,-3.8682342E0,-1.0518607E1,-1.5378164E0,1.4188866E1,2.0007256E1,4.9209948E0,1.3897438E1,-1.135272E0,-5.7429177E-1,-6.81117E-1,-3.3361948E-1,-5.612938E-1,-9.9740267E-1,-1.3040718E0,-1.3566805E0,-1.1990613E0,-1.3412124E0,1.149773E1,1.0665172E1,2.0080769E1,1.1898223E1,1.7074804E0,-8.629086E-2,-9.0228444E-1,-2.2665904E-1,-7.9432577E-1,-1.3430835E0],"categories":[],"categories_nodes":[],"categories_segments":[],"categories_sizes":[],"default_left":[0,0,0,0,0,0,0,0,0,0,0,0,0,0,0,0,0,0,0,0,0,0,0,0,0,0,0,0,0,0,0,0,0,0,0,0,0,0,0,0,0,0,0,0,0,0,0,0,0,0,0,0,0,0,0],"id":2,"left_children":[1,3,5,7,9,11,13,15,17,19,21,23,25,27,29,31,33,-1,35,37,39,41,43,-1,-1,45,47,49,51,53,-1,-1,-1,-1,-1,-1,-1,-1,-1,-1,-1,-1,-1,-1,-1,-1,-1,-1,-1,-1,-1,-1,-1,-1,-1],"loss_changes":[9.147938E7,1.717439E6,2.07956E6,2.5610468E7,6.39787E5,5.33808E5,4.633519E3,7.31376E5,8.750044E5,2.4756525E5,6.68975E3,1.23355E4,1.37688E5,1.6774564E3,8.030469E1,2.37882E5,2.545575E5,0E0,8.297625E4,9.491081E4,2.27372E5,1.085E2,1.34225E3,0E0,0E0,3.1504E4,1.248E4,1.5560565E3,7.2257544E2,2.8315308E1,0E0,0E0,0E0,0E0,0E0,0E0,0E0,0E0,0E0,0E0,0E0,0E0,0E0,0E0,0E0,0E0,0E0,0E0,0E0,0E0,0E0,0E0,0E0,0E0,0E0],"parents":[2147483647,0,0,1,1,2,2,3,3,4,4,5,5,6,6,7,7,8,8,9,9,10,10,11,11,12,12,13,13,14,14,15,15,16,16,18,18,19,19,20,20,21,21,22,22,25,25,26,26,27,27,28,28,29,29],"right_children":[2,4,6,8,10,12,14,16,18,20,22,24,26,28,30,32,34,-1,36,38,40,42,44,-1,-1,46,48,50,52,54,-1,-1,-1,-1,-1,-1,-1,-1,-1,-1,-1,-1,-1,-1,-1,-1,-1,-1,-1,-1,-1,-1,-1,-1,-1],"split_conditions":[1.5578824E2,3E0,5E0,9E0,5E0,5E0,5E0,7E0,1E0,4E0,1E0,2E0,1.1E1,1E0,6E0,2E0,2E0,2.3308996E1,2E0,1.4972902E1,4E0,3E0,6E0,2.2740782E1,1.6584259E1,6E0,4E0,2E0,1.5114238E2,3E0,-1.5378164E0,1.4188866E1,2.0007256E1,4.9209948E0,1.3897438E1,-1.135272E0,-5.7429177E-1,-6.81117E-1,-3.3361948E-1,-5.612938E-1,-9.9740267E-1,-1.3040718E0,-1.3566805E0,-1.1990613E0,-1.3412124E0,1.149773E1,1.0665172E1,2.0080769E1,1.1898223E1,1.7074804E0,-8.629086E-2,-9.0228444E-1,-2.2665904E-1,-7.9432577E-1,-1.3430835E0],"split_indices":[3,1,1,0,1,0,0,0,1,0,2,0,0,2,0,1,1,0,1,5,1,0,2,0,0,0,1,0,4,2,0,0,0,0,0,0,0,0,0,0,0,0,0,0,0,0,0,0,0,0,0,0,0,0,0],"split_type":[0,0,0,0,0,0,0,0,0,0,0,0,0,0,0,0,0,0,0,0,0,0,0,0,0,0,0,0,0,0,0,0,0,0,0,0,0,0,0,0,0,0,0,0,0,0,0,0,0,0,0,0,0,0,0],"sum_hessian":[1.27014E5,1.19737E5,7.277E3,1.141E4,1.08327E5,7.122E3,1.55E2,8.36E2,1.0574E4,8.3476E4,2.4851E4,1.44E2,6.978E3,1.08E2,4.7E1,6.15E2,2.21E2,1.4E1,1.056E4,3.5257E4,4.8219E4,4.639E3,2.0212E4,1.1E1,1.33E2,5.578E3,1.4E3,1.9E1,8.9E1,1.7E1,3E1,9.5E1,5.2E2,4E1,1.81E2,5.404E3,5.156E3,1.1831E4,2.3426E4,2.1947E4,2.6272E4,1.572E3,3.067E3,1.9448E4,7.64E2,7.12E2,4.866E3,3E0,1.397E3,7E0,1.2E1,2E1,6.9E1,1.1E1,6E0],"tree_param":{"num_deleted":"0","num_feature":"7","num_nodes":"55","size_leaf_vector":"1"}},{"base_weights":[3.7590722E-3,-5.9516883E0,9.798306E1,4.5565214E0,-7.058542E0,1.00227974E2,-5.148202E0,1.5616019E2,-7.4431777E0,-5.8649807E0,-1.1067389E1,1.5514445E2,9.907263E1,-1.8347899E0,-1.2565154E1,1.790654E2,1.2361917E2,2.113349E1,-7.753208E0,-4.0522184E0,-7.1903334E0,-1.2052816E1,-1.08406315E1,2.0656208E1,1.493821E1,9.696533E1,1.0739352E2,1.331819E0,-6.040355E0,-9.585492E0,-1.3889954E0,2.0974966E1,1.6906958E1,5.463069E0,1.3804163E1,-1.0217661E0,-5.168738E-1,-3.1292838E-1,-6.5633434E-1,-5.051668E-1,-8.976663E-1,-1.1737475E0,-1.2210568E0,-1.0522243E0,-1.1067896E0,1.034957E1,9.598873E0,1.857471E1,1.070925E1,6.726383E-1,-1.9382146E-1,-1.4593188E0,-2.6910076E-1,-7.215127E-1,-1.2279619E0],"categories":[],"categories_nodes":[],"categories_segments":[],"categories_sizes":[],"default_left":[0,0,0,0,0,0,0,0,0,0,0,0,0,0,0,0,0,0,0,0,0,0,0,0,0,0,0,0,0,0,0,0,0,0,0,0,0,0,0,0,0,0,0,0,0,0,0,0,0,0,0,0,0,0,0],"id":3,"left_children":[1,3,5,7,9,11,13,15,17,19,21,23,25,27,29,31,33,-1,35,37,39,41,43,-1,-1,45,47,49,51,53,-1,-1,-1,-1,-1,-1,-1,-1,-1,-1,-1,-1,-1,-1,-1,-1,-1,-1,-1,-1,-1,-1,-1,-1,-1],"loss_changes":[7.411518E7,1.392711E6,1.685528E6,2.0760034E7,5.182635E5,4.3656E5,3.810711E3,6.0173E5,7.1891725E5,2.005285E5,5.42275E3,1.210475E4,1.1196E5,1.4596392E3,5.6335938E1,1.14521E5,3.39708E5,0E0,6.7213375E4,8.169356E4,1.841725E5,8.75E1,1.346E3,0E0,0E0,2.5644E4,1.3151E4,1.1243827E3,1.3071108E3,2.635022E1,0E0,0E0,0E0,0E0,0E0,0E0,0E0,0E0,0E0,0E0,0E0,0E0,0E0,0E0,0E0,0E0,0E0,0E0,0E0,0E0,0E0,0E0,0E0,0E0,0E0],"parents":[2147483647,0,0,1,1,2,2,3,3,4,4,5,5,6,6,7,7,8,8,9,9,10,10,11,11,12,12,13,13,14,14,15,15,16,16,18,18,19,19,20,20,21,21,22,22,25,25,26,26,27,27,28,28,29,29],"right_children":[2,4,6,8,10,12,14,16,18,20,22,24,26,28,30,32,34,-1,36,38,40,42,44,-1,-1,46,48,50,52,54,-1,-1,-1,-1,-1,-1,-1,-1,-1,-1,-1,-1,-1,-1,-1,-1,-1,-1,-1,-1,-1,-1,-1,-1,-1],"split_conditions":[1.5578824E2,3E0,5E0,9E0,5E0,5E0,5E0,6E0,1E0,4E0,1E0,2E0,1.1E1,3E0,6E0,3E0,2E0,2.113349E1,2E0,3.706931E1,4E0,3E0,3E0,2.0656208E1,1.493821E1,6E0,4E0,1.5583891E2,1.5583891E2,3E0,-1.3889954E0,2.0974966E1,1.6906958E1,5.463069E0,1.3804163E1,-1.0217661E0,-5.168738E-1,-3.1292838E-1,-6.5633434E-1,-5.051668E-1,-8.976663E-1,-1.1737475E0,-1.2210568E0,-1.0522243E0,-1.1067896E0,1.034957E1,9.598873E0,1.857471E1,1.070925E1,6.726383E-1,-1.9382146E-1,-1.4593188E0,-2.6910076E-1,-7.215127E-1,-1.2279619E0],"split_indices":[3,1,1,0,1,0,0,0,1,0,2,0,0,2,0,0,1,0,1,5,1,0,0,0,0,0,1,4,4,2,0,0,0,0,0,0,0,0,0,0,0,0,0,0,0,0,0,0,0,0,0,0,0,0,0],"split_type":[0,0,0,0,0,0,0,0,0,0,0,0,0,0,0,0,0,0,0,0,0,0,0,0,0,0,0,0,0,0,0,0,0,0,0,0,0,0,0,0,0,0,0,0,0,0,0,0,0,0,0,0,0,0,0],"sum_hessian":[1.27014E5,1.19737E5,7.277E3,1.141E4,1.08327E5,7.122E3,1.55E2,8.36E2,1.0574E4,8.3476E4,2.4851E4,1.44E2,6.978E3,1.08E2,4.7E1,4.88E2,3.48E2,1.4E1,1.056E4,3.5257E4,4.8219E4,4.639E3,2.0212E4,1.1E1,1.33E2,5.578E3,1.4E3,6.2E1,4.6E1,1.7E1,3E1,1.15E2,3.73E2,6.1E1,2.87E2,5.404E3,5.156E3,2.5783E4,9.474E3,2.1947E4,2.6272E4,1.572E3,3.067E3,8.438E3,1.1774E4,7.12E2,4.866E3,3E0,1.397E3,2.3E1,3.9E1,1.2E1,3.4E1,1.1E1,6E0],"tree_param":{"num_deleted":"0","num_feature":"7","num_nodes":"55","size_leaf_vector":"1"}},{"base_weights":[4.5651016E-3,-5.355936E0,8.8195786E1,4.107595E0,-6.3527513E0,9.021709E1,-4.662793E0,1.4061244E2,-6.6970067E0,-5.2785106E0,-9.960834E0,1.3987549E2,8.9172424E1,-1.6627756E0,-1.1378191E1,1.5553737E2,9.8565735E1,1.916103E1,-6.978032E0,-3.6470237E0,-6.4713287E0,-1.0848051E1,-9.756675E0,1.8762724E1,1.3455537E2,8.727238E1,9.667507E1,5.5174108E0,-3.2398973E0,-8.735248E0,-1.2545766E0,1.126031E1,1.6314995E1,3.907915E0,1.1142499E1,-9.1960824E-1,-4.6519634E-1,-5.817209E-1,-2.5507984E-1,-4.5465246E-1,-8.07903E-1,-1.0564474E0,-1.0989908E0,-9.679602E-1,-1.0584458E0,1.2842735E1,1.6488665E1,9.316065E0,8.639184E0,1.7181608E1,9.639092E0,1.5642046E0,-1.1375501E-1,-7.890438E-1,-1.7984508E-1,-6.5537405E-1,-1.1227082E0],"categories":[],"categories_nodes":[],"categories_segments":[],"categories_sizes":[],"default_left":[0,0,0,0,0,0,0,0,0,0,0,0,0,0,0,0,0,0,0,0,0,0,0,0,0,0,0,0,0,0,0,0,0,0,0,0,0,0,0,0,0,0,0,0,0,0,0,0,0,0,0,0,0,0,0,0,0],"id":4,"left_children":[1,3,5,7,9,11,13,15,17,19,21,23,25,27,29,31,33,-1,35,37,39,41,43,-1,45,47,49,51,53,55,-1,-1,-1,-1,-1,-1,-1,-1,-1,-1,-1,-1,-1,-1,-1,-1,-1,-1,-1,-1,-1,-1,-1,-1,-1,-1,-1],"loss_changes":[6.0046704E7,1.1295612E6,1.366468E6,1.6830802E7,4.19821E5,3.5704E5,3.123905E3,5.09925E5,5.90676E5,1.6242825E5,4.39575E3,1.159025E4,9.1056E4,1.2521948E3,3.8529785E1,1.82962E5,1.6546525E5,0E0,5.444503E4,8.386444E4,1.491805E5,7.05625E1,1.187125E3,0E0,3.73075E3,2.0876E4,1.3352E4,1.3653745E3,5.891249E2,2.4267822E1,0E0,0E0,0E0,0E0,0E0,0E0,0E0,0E0,0E0,0E0,0E0,0E0,0E0,0E0,0E0,0E0,0E0,0E0,0E0,0E0,0E0,0E0,0E0,0E0,0E0,0E0,0E0],"parents":[2147483647,0,0,1,1,2,2,3,3,4,4,5,5,6,6,7,7,8,8,9,9,10,10,11,11,12,12,13,13,14,14,15,15,16,16,18,18,19,19,20,20,21,21,22,22,24,24,25,25,26,26,27,27,28,28,29,29],"right_children":[2,4,6,8,10,12,14,16,18,20,22,24,26,28,30,32,34,-1,36,38,40,42,44,-1,46,48,50,52,54,56,-1,-1,-1,-1,-1,-1,-1,-1,-1,-1,-1,-1,-1,-1,-1,-1,-1,-1,-1,-1,-1,-1,-1,-1,-1,-1,-1],"split_conditions":[1.5578824E2,3E0,5E0,9E0,5E0,5E0,5E0,7E0,1E0,4E0,1E0,2E0,1.1E1,1E0,6E0,2E0,2E0,1.916103E1,2E0,1.4972902E1,4E0,3E0,5E0,1.8762724E1,1.624E2,6E0,4E0,2E0,1.5114238E2,3E0,-1.2545766E0,1.126031E1,1.6314995E1,3.907915E0,1.1142499E1,-9.1960824E-1,-4.6519634E-1,-5.817209E-1,-2.5507984E-1,-4.5465246E-1,-8.07903E-1,-1.0564474E0,-1.0989908E0,-9.679602E-1,-1.0584458E0,1.2842735E1,1.6488665E1,9.316065E0,8.639184E0,1.7181608E1,9.639092E0,1.5642046E0,-1.1375501E-1,-7.890438E-1,-1.7984508E-1,-6.5537405E-1,-1.1227082E0],"split_indices":[3,1,1,0,1,0,0,0,1,0,2,0,0,2,0,1,1,0,1,5,1,0,2,0,4,0,1,0,4,2,0,0,0,0,0,0,0,0,0,0,0,0,0,0,0,0,0,0,0,0,0,0,0,0,0,0,0],"split_type":[0,0,0,0,0,0,0,0,0,0,0,0,0,0,0,0,0,0,0,0,0,0,0,0,0,0,0,0,0,0,0,0,0,0,0,0,0,0,0,0,0,0,0,0,0,0,0,0,0,0,0,0,0,0,0,0,0],"sum_hessian":[1.27014E5,1.19737E5,7.277E3,1.141E4,1.08327E5,7.122E3,1.55E2,8.36E2,1.0574E4,8.3476E4,2.4851E4,1.44E2,6.978E3,1.08E2,4.7E1,6.15E2,2.21E2,1.4E1,1.056E4,3.5257E4,4.8219E4,4.639E3,2.0212E4,1.1E1,1.33E2,5.578E3,1.4E3,1.9E1,8.9E1,1.7E1,3E1,9.5E1,5.2E2,4E1,1.81E2,5.404E3,5.156E3,1.1831E4,2.3426E4,2.1947E4,2.6272E4,1.572E3,3.067E3,1.8502E4,1.71E3,1.15E2,1.8E1,7.12E2,4.866E3,3E0,1.397E3,7E0,1.2E1,2E1,6.9E1,1.1E1,6E0],"tree_param":{"num_deleted":"0","num_feature":"7","num_nodes":"57","size_leaf_vector":"1"}},{"base_weights":[5.2457666E-3,-4.8198905E0,7.938862E1,3.7021291E0,-5.7175345E0,8.120842E1,-4.2128663E0,1.2660213E2,-6.0256248E0,-4.7506847E0,-8.964918E0,1.2621962E2,8.0261604E1,-1.4920796E0,-1.0303552E1,1.4571962E2,9.945296E1,1.7372667E1,-6.28036E0,-3.2823458E0,-5.8242216E0,-9.763711E0,-8.781108E0,1.7042807E1,1.2131872E2,7.8548355E1,8.702671E1,1.2832239E0,-5.180421E0,-7.9605045E0,-1.1331658E0,1.6241875E1,1.2988637E1,4.2920527E0,1.1127781E1,-8.276644E-1,-4.1868573E-1,-2.411418E-1,-5.652026E-1,-4.0918928E-1,-7.2711575E-1,-9.5086986E-1,-9.8912764E-1,-8.496775E-1,-8.984141E-1,1.1569533E1,1.4926579E1,8.095163E0,7.670987E0,1.5892987E1,8.675873E0,2.4375367E-1,-1.2594312E0,-1.265836E0,-2.254889E-1,-5.9529805E-1,-1.026476E0],"categories":[],"categories_nodes":[],"categories_segments":[],"categories_sizes":[],"default_left":[0,0,0,0,0,0,0,0,0,0,0,0,0,0,0,0,0,0,0,0,0,0,0,0,0,0,0,0,0,0,0,0,0,0,0,0,0,0,0,0,0,0,0,0,0,0,0,0,0,0,0,0,0,0,0,0,0],"id":5,"left_children":[1,3,5,7,9,11,13,15,17,19,21,23,25,27,29,31,33,-1,35,37,39,41,43,-1,45,47,49,51,53,55,-1,-1,-1,-1,-1,-1,-1,-1,-1,-1,-1,-1,-1,-1,-1,-1,-1,-1,-1,-1,-1,-1,-1,-1,-1,-1,-1],"loss_changes":[4.865165E7,9.159855E5,1.107604E6,1.3643081E7,3.4007825E5,2.93432E5,2.5697734E3,4.19931E5,4.853123E5,1.31567E5,3.56325E3,1.073975E4,7.4052E4,1.1224008E3,2.5421875E1,1.08196E5,2.285265E5,0E0,4.4102125E4,7.275253E4,1.20836875E5,5.690625E1,1.0905E3,0E0,3.78975E3,1.844E4,1.3208E4,1.0398972E3,9.996732E2,2.2159302E1,0E0,0E0,0E0,0E0,0E0,0E0,0E0,0E0,0E0,0E0,0E0,0E0,0E0,0E0,0E0,0E0,0E0,0E0,0E0,0E0,0E0,0E0,0E0,0E0,0E0,0E0,0E0],"parents":[2147483647,0,0,1,1,2,2,3,3,4,4,5,5,6,6,7,7,8,8,9,9,10,10,11,11,12,12,13,13,14,14,15,15,16,16,18,18,19,19,20,20,21,21,22,22,24,24,25,25,26,26,27,27,28,28,29,29],"right_children":[2,4,6,8,10,12,14,16,18,20,22,24,26,28,30,32,34,-1,36,38,40,42,44,-1,46,48,50,52,54,56,-1,-1,-1,-1,-1,-1,-1,-1,-1,-1,-1,-1,-1,-1,-1,-1,-1,-1,-1,-1,-1,-1,-1,-1,-1,-1,-1],"split_conditions":[1.5578824E2,3E0,5E0,9E0,5E0,5E0,5E0,6E0,1E0,4E0,1E0,2E0,1.1E1,3E0,6E0,4E0,2E0,1.7372667E1,2E0,3.706931E1,4E0,3E0,3E0,1.7042807E1,1.624E2,8E0,4E0,1.5874243E2,1.5583891E2,3E0,-1.1331658E0,1.6241875E1,1.2988637E1,4.2920527E0,1.1127781E1,-8.276644E-1,-4.1868573E-1,-2.411418E-1,-5.652026E-1,-4.0918928E-1,-7.2711575E-1,-9.5086986E-1,-9.8912764E-1,-8.496775E-1,-8.984141E-1,1.1569533E1,1.4926579E1,8.095163E0,7.670987E0,1.5892987E1,8.675873E0,2.4375367E-1,-1.2594312E0,-1.265836E0,-2.254889E-1,-5.9529805E-1,-1.026476E0],"split_indices":[3,1,1,0,1,0,0,0,1,0,2,0,0,2,0,0,1,0,1,5,1,0,0,0,4,0,1,4,4,2,0,0,0,0,0,0,0,0,0,0,0,0,0,0,0,0,0,0,0,0,0,0,0,0,0,0,0],"split_type":[0,0,0,0,0,0,0,0,0,0,0,0,0,0,0,0,0,0,0,0,0,0,0,0,0,0,0,0,0,0,0,0,0,0,0,0,0,0,0,0,0,0,0,0,0,0,0,0,0,0,0,0,0,0,0,0,0],"sum_hessian":[1.27014E5,1.19737E5,7.277E3,1.141E4,1.08327E5,7.122E3,1.55E2,8.36E2,1.0574E4,8.3476E4,2.4851E4,1.44E2,6.978E3,1.08E2,4.7E1,4.88E2,3.48E2,1.4E1,1.056E4,3.5257E4,4.8219E4,4.639E3,2.0212E4,1.1E1,1.33E2,5.578E3,1.4E3,6.2E1,4.6E1,1.7E1,3E1,2.33E2,2.55E2,6.1E1,2.87E2,5.404E3,5.156E3,2.5783E4,9.474E3,2.1947E4,2.6272E4,1.572E3,3.067E3,8.438E3,1.1774E4,1.15E2,1.8E1,2.399E3,3.179E3,3E0,1.397E3,5.8E1,4E0,1.2E1,3.4E1,1.1E1,6E0],"tree_param":{"num_deleted":"0","num_feature":"7","num_nodes":"57","size_leaf_vector":"1"}},{"base_weights":[5.7743173E-3,-4.337441E0,7.1460556E1,3.3372421E0,-5.1458325E0,7.309935E1,-3.8253102E0,1.13995255E2,-5.4215374E0,-4.2756395E0,-8.068575E0,1.1389793E2,7.224122E1,-1.3658718E0,-9.330591E0,1.2644701E2,7.893096E1,1.5751218E1,-5.652442E0,-3.306233E0,-5.638082E0,-8.787758E0,-7.903084E0,1.4108314E1,1.0733984E2,7.069635E1,7.8341576E1,4.956945E0,-2.7557657E0,-7.2545524E0,-1.0235046E0,8.905195E0,1.3309476E1,3.1079185E0,8.927707E0,-7.449133E-1,-3.7682524E-1,-4.9983332E-1,-2.4573465E-1,-3.3997607E-1,-7.4784684E-1,-8.5584325E-1,-8.9024705E-1,-7.834198E-1,-8.643411E-1,1.0060535E1,1.3461812E1,7.5773845E0,6.9937987E0,7.775113E0,1.0657679E1,7.875843E-1,-1.4208759E0,-6.999039E-1,-1.2800151E-1,-5.40729E-1,-9.384923E-1],"categories":[],"categories_nodes":[],"categories_segments":[],"categories_sizes":[],"default_left":[0,0,0,0,0,0,0,0,0,0,0,0,0,0,0,0,0,0,0,0,0,0,0,0,0,0,0,0,0,0,0,0,0,0,0,0,0,0,0,0,0,0,0,0,0,0,0,0,0,0,0,0,0,0,0,0,0],"id":6,"left_children":[1,3,5,7,9,11,13,15,17,19,21,23,25,27,29,31,33,-1,35,37,39,41,43,-1,45,47,49,51,53,55,-1,-1,-1,-1,-1,-1,-1,-1,-1,-1,-1,-1,-1,-1,-1,-1,-1,-1,-1,-1,-1,-1,-1,-1,-1,-1,-1],"loss_changes":[3.9418588E7,7.4289025E5,8.98228E5,1.1060493E7,2.7548125E5,2.41152E5,2.0994802E3,3.55463E5,3.987447E5,1.102345E5,2.8885E3,1.070725E4,6.0232E4,9.715572E2,1.5878418E1,1.41281E5,1.07133E5,0E0,3.5724094E4,7.004956E4,1.4292512E5,4.5875E1,9.63125E2,0E0,8.685E3,1.6184E4,1.5069E4,1.2307607E3,5.546223E2,2.0089355E1,0E0,0E0,0E0,0E0,0E0,0E0,0E0,0E0,0E0,0E0,0E0,0E0,0E0,0E0,0E0,0E0,0E0,0E0,0E0,0E0,0E0,0E0,0E0,0E0,0E0,0E0,0E0],"parents":[2147483647,0,0,1,1,2,2,3,3,4,4,5,5,6,6,7,7,8,8,9,9,10,10,11,11,12,12,13,13,14,14,15,15,16,16,18,18,19,19,20,20,21,21,22,22,24,24,25,25,26,26,27,27,28,28,29,29],"right_children":[2,4,6,8,10,12,14,16,18,20,22,24,26,28,30,32,34,-1,36,38,40,42,44,-1,46,48,50,52,54,56,-1,-1,-1,-1,-1,-1,-1,-1,-1,-1,-1,-1,-1,-1,-1,-1,-1,-1,-1,-1,-1,-1,-1,-1,-1,-1,-1],"split_conditions":[1.5578824E2,3E0,5E0,9E0,5E0,5E0,5E0,7E0,1E0,6E0,1E0,3E0,1.1E1,1E0,6E0,2E0,2E0,1.5751218E1,2E0,1.4972902E1,4E0,3E0,5E0,1.4108314E1,1.5874243E2,6E0,1.7406818E2,4E0,2E0,3E0,-1.0235046E0,8.905195E0,1.3309476E1,3.1079185E0,8.927707E0,-7.449133E-1,-3.7682524E-1,-4.9983332E-1,-2.4573465E-1,-3.3997607E-1,-7.4784684E-1,-8.5584325E-1,-8.9024705E-1,-7.834198E-1,-8.643411E-1,1.0060535E1,1.3461812E1,7.5773845E0,6.9937987E0,7.775113E0,1.0657679E1,7.875843E-1,-1.4208759E0,-6.999039E-1,-1.2800151E-1,-5.40729E-1,-9.384923E-1],"split_indices":[3,1,1,0,1,0,0,0,1,0,2,0,0,2,0,1,1,0,1,5,1,0,2,0,4,0,4,0,0,2,0,0,0,0,0,0,0,0,0,0,0,0,0,0,0,0,0,0,0,0,0,0,0,0,0,0,0],"split_type":[0,0,0,0,0,0,0,0,0,0,0,0,0,0,0,0,0,0,0,0,0,0,0,0,0,0,0,0,0,0,0,0,0,0,0,0,0,0,0,0,0,0,0,0,0,0,0,0,0,0,0,0,0,0,0,0,0],"sum_hessian":[1.27014E5,1.19737E5,7.277E3,1.141E4,1.08327E5,7.122E3,1.55E2,8.36E2,1.0574E4,8.3476E4,2.4851E4,1.44E2,6.978E3,1.08E2,4.7E1,6.15E2,2.21E2,1.4E1,1.056E4,4.8775E4,3.4701E4,4.639E3,2.0212E4,2.4E1,1.2E2,5.578E3,1.4E3,1.9E1,8.9E1,1.7E1,3E1,9.5E1,5.2E2,4E1,1.81E2,5.404E3,5.156E3,1.6293E4,3.2482E4,1.5659E4,1.9042E4,1.572E3,3.067E3,1.8502E4,1.71E3,1E2,2E1,7.12E2,4.866E3,1.375E3,2.5E1,1.7E1,2E0,2.2E1,6.7E1,1.1E1,6E0],"tree_param":{"num_deleted":"0","num_feature":"7","num_nodes":"57","size_leaf_vector":"1"}},{"base_weights":[6.0654962E-3,-3.9033322E0,6.432366E1,3.0078013E0,-4.6312976E0,6.579933E1,-3.4681888E0,1.0263665E2,-4.8780003E0,-3.8480973E0,-7.261854E0,1.0276766E2,6.502183E1,-1.2426897E0,-8.449673E0,1.3380301E2,9.0392334E1,1.4281105E1,-5.087304E0,-2.6231413E0,-4.743694E0,-7.9093575E0,-7.112857E0,1.4187288E1,9.849878E1,6.3629326E1,7.052058E1,-5.4874104E-1,-1.3064017E0,-6.611276E0,-9.244558E-1,1.4544161E1,1.2133342E1,4.130342E0,9.913234E0,7.428181E-2,-5.6430626E-1,-1.8079661E-1,-4.8411736E-1,-3.3452404E-1,-5.911756E-1,-8.074107E-1,-7.766334E-1,-6.858933E-1,-7.294237E-1,9.539444E0,1.5951186E1,6.329431E0,7.5096726E0,1.4117881E1,7.026796E0,7.0320076E-1,-2.1108644E-1,-1.0844816E0,-5.404283E-1],"categories":[],"categories_nodes":[],"categories_segments":[],"categories_sizes":[],"default_left":[0,0,0,0,0,0,0,0,0,0,0,0,0,0,0,0,0,0,0,0,0,0,0,0,0,0,0,0,0,0,0,0,0,0,0,0,0,0,0,0,0,0,0,0,0,0,0,0,0,0,0,0,0,0,0],"id":7,"left_children":[1,3,5,7,9,11,13,15,17,19,21,23,25,27,29,31,33,-1,35,37,39,41,43,-1,45,47,49,51,-1,53,-1,-1,-1,-1,-1,-1,-1,-1,-1,-1,-1,-1,-1,-1,-1,-1,-1,-1,-1,-1,-1,-1,-1,-1,-1],"loss_changes":[3.1937292E7,6.0242375E5,7.28306E5,8.965591E6,2.23155E5,1.98056E5,1.7189606E3,3.07312E5,3.276197E5,9.1567375E4,2.341375E3,1.02315E4,4.895E4,8.870012E2,9.024902E0,1.6313E4,2.55044E5,0E0,3.4223312E4,6.3740734E4,7.8746625E4,4.6625E1,8.809375E2,0E0,1.0163625E4,1.668E4,1.5087E4,1.2464182E3,0E0,3.3368896E1,0E0,0E0,0E0,0E0,0E0,0E0,0E0,0E0,0E0,0E0,0E0,0E0,0E0,0E0,0E0,0E0,0E0,0E0,0E0,0E0,0E0,0E0,0E0,0E0,0E0],"parents":[2147483647,0,0,1,1,2,2,3,3,4,4,5,5,6,6,7,7,8,8,9,9,10,10,11,11,12,12,13,13,14,14,15,15,16,16,18,18,19,19,20,20,21,21,22,22,24,24,25,25,26,26,27,27,29,29],"right_children":[2,4,6,8,10,12,14,16,18,20,22,24,26,28,30,32,34,-1,36,38,40,42,44,-1,46,48,50,52,-1,54,-1,-1,-1,-1,-1,-1,-1,-1,-1,-1,-1,-1,-1,-1,-1,-1,-1,-1,-1,-1,-1,-1,-1,-1,-1],"split_conditions":[1.5578824E2,3E0,5E0,9E0,5E0,5E0,5E0,4E0,1E0,4E0,1E0,2E0,1.1E1,1.5874243E2,6E0,3E0,2E0,1.4281105E1,1E1,3.706931E1,4E0,1.5638766E1,3E0,1.4187288E1,5E0,1.624E2,4E0,1E0,-1.3064017E0,1E0,-9.244558E-1,1.4544161E1,1.2133342E1,4.130342E0,9.913234E0,7.428181E-2,-5.6430626E-1,-1.8079661E-1,-4.8411736E-1,-3.3452404E-1,-5.911756E-1,-8.074107E-1,-7.766334E-1,-6.858933E-1,-7.294237E-1,9.539444E0,1.5951186E1,6.329431E0,7.5096726E0,1.4117881E1,7.026796E0,7.0320076E-1,-2.1108644E-1,-1.0844816E0,-5.404283E-1],"split_indices":[3,1,1,0,1,0,0,0,1,0,2,0,0,4,0,0,1,0,0,5,1,5,0,0,2,4,1,2,0,2,0,0,0,0,0,0,0,0,0,0,0,0,0,0,0,0,0,0,0,0,0,0,0,0,0],"split_type":[0,0,0,0,0,0,0,0,0,0,0,0,0,0,0,0,0,0,0,0,0,0,0,0,0,0,0,0,0,0,0,0,0,0,0,0,0,0,0,0,0,0,0,0,0,0,0,0,0,0,0,0,0,0,0],"sum_hessian":[1.27014E5,1.19737E5,7.277E3,1.141E4,1.08327E5,7.122E3,1.55E2,8.36E2,1.0574E4,8.3476E4,2.4851E4,1.44E2,6.978E3,1.08E2,4.7E1,2.33E2,6.03E2,1.4E1,1.056E4,3.5257E4,4.8219E4,4.639E3,2.0212E4,1.1E1,1.33E2,5.578E3,1.4E3,1.03E2,5E0,1.7E1,3E1,1.15E2,1.18E2,9.2E1,5.11E2,9.19E2,9.641E3,2.5783E4,9.474E3,2.1947E4,2.6272E4,2.13E3,2.509E3,8.438E3,1.1774E4,1.29E2,4E0,5.426E3,1.52E2,3E0,1.397E3,1.7E1,8.6E1,2E0,1.5E1],"tree_param":{"num_deleted":"0","num_feature":"7","num_nodes":"55","size_leaf_vector":"1"}},{"base_weights":[6.413266E-3,-3.5125823E0,5.7901093E1,2.7117984E0,-4.1682105E0,5.922988E1,-3.1429322E0,9.242163E1,-4.388896E0,-3.4633067E0,-6.5357895E0,9.2764534E1,5.852466E1,-1.1258916E0,-7.6578174E0,1.03139565E2,6.2265472E1,1.2948203E1,-4.57862E0,-2.6552687E0,-4.598959E0,-7.1187634E0,-6.4016414E0,1.1633624E1,8.71277E1,5.7268875E1,6.3483612E1,1.1891538E0,-4.2050824E0,-6.0404215E0,-8.349924E-1,1.2053671E1,9.224121E0,2.4017467E0,7.053966E0,-6.204783E-1,-2.873368E-1,-4.2387268E-1,-1.8608989E-1,-2.7253044E-1,-6.139516E-1,-6.914081E-1,-7.2213864E-1,-6.359808E-1,-7.456846E-1,8.383502E0,1.467509E1,5.9336085E0,5.569071E0,6.2944517E0,8.957248E0,5.8914584E-1,-1.6619577E-1,-1.1176893E0,-1.4954077E-1,-1.0121828E0,-4.897631E-1],"categories":[],"categories_nodes":[],"categories_segments":[],"categories_sizes":[],"default_left":[0,0,0,0,0,0,0,0,0,0,0,0,0,0,0,0,0,0,0,0,0,0,0,0,0,0,0,0,0,0,0,0,0,0,0,0,0,0,0,0,0,0,0,0,0,0,0,0,0,0,0,0,0,0,0,0,0],"id":8,"left_children":[1,3,5,7,9,11,13,15,17,19,21,23,25,27,29,31,33,-1,35,37,39,41,43,-1,45,47,49,51,53,55,-1,-1,-1,-1,-1,-1,-1,-1,-1,-1,-1,-1,-1,-1,-1,-1,-1,-1,-1,-1,-1,-1,-1,-1,-1,-1,-1],"loss_changes":[2.587711E7,4.886475E5,5.90538E5,7.269237E6,1.8076775E5,1.63026E5,1.4120244E3,2.64106E5,2.6918222E5,7.659056E4,1.897875E3,9.13E3,3.9824E4,7.820033E2,3.2946777E0,1.056745E5,6.856244E4,0E0,2.9268016E4,6.1345062E4,1.0014956E5,4.7546875E1,8.44875E2,0E0,1.14518125E4,1.4896E4,1.4066E4,8.544194E2,8.711788E2,3.4382446E1,0E0,0E0,0E0,0E0,0E0,0E0,0E0,0E0,0E0,0E0,0E0,0E0,0E0,0E0,0E0,0E0,0E0,0E0,0E0,0E0,0E0,0E0,0E0,0E0,0E0,0E0,0E0],"parents":[2147483647,0,0,1,1,2,2,3,3,4,4,5,5,6,6,7,7,8,8,9,9,10,10,11,11,12,12,13,13,14,14,15,15,16,16,18,18,19,19,20,20,21,21,22,22,24,24,25,25,26,26,27,27,28,28,29,29],"right_children":[2,4,6,8,10,12,14,16,18,20,22,24,26,28,30,32,34,-1,36,38,40,42,44,-1,46,48,50,52,54,56,-1,-1,-1,-1,-1,-1,-1,-1,-1,-1,-1,-1,-1,-1,-1,-1,-1,-1,-1,-1,-1,-1,-1,-1,-1,-1,-1],"split_conditions":[1.5578824E2,3E0,5E0,9E0,5E0,5E0,5E0,7E0,1E0,6E0,1E0,3E0,1.1E1,3E0,6E0,4E0,2E0,1.2948203E1,2E0,1.4972902E1,4E0,3E0,6E0,1.1633624E1,5E0,8E0,1.7406818E2,1.5583891E2,1.5583891E2,1E0,-8.349924E-1,1.2053671E1,9.224121E0,2.4017467E0,7.053966E0,-6.204783E-1,-2.873368E-1,-4.2387268E-1,-1.8608989E-1,-2.7253044E-1,-6.139516E-1,-6.914081E-1,-7.2213864E-1,-6.359808E-1,-7.456846E-1,8.383502E0,1.467509E1,5.9336085E0,5.569071E0,6.2944517E0,8.957248E0,5.8914584E-1,-1.6619577E-1,-1.1176893E0,-1.4954077E-1,-1.0121828E0,-4.897631E-1],"split_indices":[3,1,1,0,1,0,0,0,1,0,2,0,0,2,0,0,1,0,1,5,1,0,2,0,2,0,4,4,4,2,0,0,0,0,0,0,0,0,0,0,0,0,0,0,0,0,0,0,0,0,0,0,0,0,0,0,0],"split_type":[0,0,0,0,0,0,0,0,0,0,0,0,0,0,0,0,0,0,0,0,0,0,0,0,0,0,0,0,0,0,0,0,0,0,0,0,0,0,0,0,0,0,0,0,0,0,0,0,0,0,0,0,0,0,0,0,0],"sum_hessian":[1.27014E5,1.19737E5,7.277E3,1.141E4,1.08327E5,7.122E3,1.55E2,8.36E2,1.0574E4,8.3476E4,2.4851E4,1.44E2,6.978E3,1.08E2,4.7E1,6.15E2,2.21E2,1.4E1,1.056E4,4.8775E4,3.4701E4,4.639E3,2.0212E4,2.4E1,1.2E2,5.578E3,1.4E3,6.2E1,4.6E1,1.7E1,3E1,2.33E2,3.82E2,4E1,1.81E2,5.404E3,5.156E3,1.6293E4,3.2482E4,1.5659E4,1.9042E4,1.572E3,3.067E3,1.9448E4,7.64E2,1.16E2,4E0,2.399E3,3.179E3,1.375E3,2.5E1,2.3E1,3.9E1,1.2E1,3.4E1,2E0,1.5E1],"tree_param":{"num_deleted":"0","num_feature":"7","num_nodes":"57","size_leaf_vector":"1"}},{"base_weights":[6.5336283E-3,-3.1610026E0,5.211899E1,2.4443672E0,-3.751429E0,5.331552E1,-2.8490317E0,8.321619E1,-3.948868E0,-3.1169941E0,-5.8823233E0,8.372734E1,5.2676025E1,-1.0210485E0,-6.940722E-1,9.688702E1,6.3822926E1,1.1739703E1,-4.120844E0,-4.3532734E0,-2.4908671E0,-6.4071918E0,-5.7615457E0,1.1820372E1,8.0015076E1,5.154405E1,5.7146137E1,-3.8708192E-1,-1.183963E0,1.1907308E1,8.974672E0,2.493878E0,7.1972213E0,1.1537162E-1,-4.6236935E-1,-6.604255E-1,-4.114957E-1,-1.2347599E-1,-4.0256962E-1,-6.554794E-1,-6.279325E-1,-5.534811E-1,-5.923555E-1,7.7284355E0,1.3501082E1,5.1241355E0,6.194383E0,1.2586955E1,5.6908627E0,6.1471635E-1,-1.7345455E-1],"categories":[],"categories_nodes":[],"categories_segments":[],"categories_sizes":[],"default_left":[0,0,0,0,0,0,0,0,0,0,0,0,0,0,0,0,0,0,0,0,0,0,0,0,0,0,0,0,0,0,0,0,0,0,0,0,0,0,0,0,0,0,0,0,0,0,0,0,0,0,0],"id":9,"left_children":[1,3,5,7,9,11,13,15,17,19,21,23,25,27,-1,29,31,-1,33,35,37,39,41,-1,43,45,47,49,-1,-1,-1,-1,-1,-1,-1,-1,-1,-1,-1,-1,-1,-1,-1,-1,-1,-1,-1,-1,-1,-1,-1],"loss_changes":[2.0966288E7,3.96289E5,4.78834E5,5.8928915E6,1.4643162E5,1.34116E5,1.1597216E3,2.15724E5,2.2116919E5,6.4606E4,1.5385E3,9.099875E3,3.237E4,7.4300653E2,0E0,6.67785E4,1.08795625E5,0E0,2.8016375E4,1.5027125E4,1.06830125E5,4.6421875E1,7.096875E2,0E0,9.689625E3,1.4387E4,1.5705E4,9.2634686E2,0E0,0E0,0E0,0E0,0E0,0E0,0E0,0E0,0E0,0E0,0E0,0E0,0E0,0E0,0E0,0E0,0E0,0E0,0E0,0E0,0E0,0E0,0E0],"parents":[2147483647,0,0,1,1,2,2,3,3,4,4,5,5,6,6,7,7,8,8,9,9,10,10,11,11,12,12,13,13,15,15,16,16,18,18,19,19,20,20,21,21,22,22,24,24,25,25,26,26,27,27],"right_children":[2,4,6,8,10,12,14,16,18,20,22,24,26,28,-1,30,32,-1,34,36,38,40,42,-1,44,46,48,50,-1,-1,-1,-1,-1,-1,-1,-1,-1,-1,-1,-1,-1,-1,-1,-1,-1,-1,-1,-1,-1,-1,-1],"split_conditions":[1.5578824E2,3E0,5E0,9E0,5E0,5E0,5E0,6E0,1E0,1.4972902E1,1E0,2E0,1.1E1,1.5874243E2,-6.940722E-1,3E0,2E0,1.1739703E1,1E1,1.1619167E1,3.706931E1,1.5638766E1,3E0,1.1820372E1,5E0,1.624E2,4E0,1E0,-1.183963E0,1.1907308E1,8.974672E0,2.493878E0,7.1972213E0,1.1537162E-1,-4.6236935E-1,-6.604255E-1,-4.114957E-1,-1.2347599E-1,-4.0256962E-1,-6.554794E-1,-6.279325E-1,-5.534811E-1,-5.923555E-1,7.7284355E0,1.3501082E1,5.1241355E0,6.194383E0,1.2586955E1,5.6908627E0,6.1471635E-1,-1.7345455E-1],"split_indices":[3,1,1,0,1,0,0,0,1,5,2,0,0,4,0,0,1,0,0,5,5,5,0,0,2,4,1,2,0,0,0,0,0,0,0,0,0,0,0,0,0,0,0,0,0,0,0,0,0,0,0],"split_type":[0,0,0,0,0,0,0,0,0,0,0,0,0,0,0,0,0,0,0,0,0,0,0,0,0,0,0,0,0,0,0,0,0,0,0,0,0,0,0,0,0,0,0,0,0,0,0,0,0,0,0],"sum_hessian":[1.27014E5,1.19737E5,7.277E3,1.141E4,1.08327E5,7.122E3,1.55E2,8.36E2,1.0574E4,8.3476E4,2.4851E4,1.44E2,6.978E3,1.08E2,4.7E1,4.88E2,3.48E2,1.4E1,1.056E4,2.8062E4,5.5414E4,4.639E3,2.0212E4,1.1E1,1.33E2,5.578E3,1.4E3,1.03E2,5E0,1.15E2,3.73E2,6.1E1,2.87E2,9.19E2,9.641E3,2.684E3,2.5378E4,3.0475E4,2.4939E4,2.13E3,2.509E3,8.438E3,1.1774E4,1.29E2,4E0,5.426E3,1.52E2,3E0,1.397E3,1.7E1,8.6E1],"tree_param":{"num_deleted":"0","num_feature":"7","num_nodes":"51","size_leaf_vector":"1"}},{"base_weights":[6.6606654E-3,-2.8445857E0,4.69155E1,2.2036083E0,-3.3763235E0,4.7992764E1,-2.5733387E0,7.49311E1,-3.5529037E0,-2.805314E0,-5.2941885E0,7.5582535E1,4.7412663E1,-9.257577E-1,-6.26111E0,8.387936E1,4.9764164E1,1.0643998E1,-3.7087924E0,-1.7913595E0,-3.5466497E0,-5.766749E0,-5.1854477E0,8.689897E0,6.657212E1,4.6939484E1,5.626719E1,-3.4413108E-1,-1.0852994E0,-4.8643084E0,-6.8701845E-1,5.3372707E0,8.933955E0,1.9241244E0,5.636678E0,-5.180604E-1,-2.1654823E-1,-1.064735E-1,-3.7685102E-1,-2.4225156E-1,-4.485596E-1,-5.5840206E-1,-5.8585566E-1,-5.1480305E-1,-6.129956E-1,6.2185297E0,1.3985908E1,4.664861E0,5.7047243E0,5.105914E0,6.7416086E0,5.566599E-1,-1.5630852E-1,-3.1533015E-1,-7.1025616E-1],"categories":[],"categories_nodes":[],"categories_segments":[],"categories_sizes":[],"default_left":[0,0,0,0,0,0,0,0,0,0,0,0,0,0,0,0,0,0,0,0,0,0,0,0,0,0,0,0,0,0,0,0,0,0,0,0,0,0,0,0,0,0,0,0,0,0,0,0,0,0,0,0,0,0,0],"id":10,"left_children":[1,3,5,7,9,11,13,15,17,19,21,23,25,27,29,31,33,-1,35,37,39,41,43,-1,45,47,49,51,-1,53,-1,-1,-1,-1,-1,-1,-1,-1,-1,-1,-1,-1,-1,-1,-1,-1,-1,-1,-1,-1,-1,-1,-1,-1,-1],"loss_changes":[1.698822E7,3.21422E5,3.88131E5,4.7775575E6,1.18617125E5,1.10418E5,9.4204456E2,1.843185E5,1.8172055E5,6.2741688E4,1.247125E3,8.9999375E3,2.66E4,6.2562506E2,7.4177246E0,9.784E4,4.3655375E4,0E0,2.3977672E4,5.0649258E4,5.0885438E4,4.5125E1,6.828125E2,0E0,1.8630094E4,1.6834E4,1.6822125E4,7.580115E2,0E0,4.6537506E1,0E0,0E0,0E0,0E0,0E0,0E0,0E0,0E0,0E0,0E0,0E0,0E0,0E0,0E0,0E0,0E0,0E0,0E0,0E0,0E0,0E0,0E0,0E0,0E0,0E0],"parents":[2147483647,0,0,1,1,2,2,3,3,4,4,5,5,6,6,7,7,8,8,9,9,10,10,11,11,12,12,13,13,14,14,15,15,16,16,18,18,19,19,20,20,21,21,22,22,24,24,25,25,26,26,27,27,29,29],"right_children":[2,4,6,8,10,12,14,16,18,20,22,24,26,28,30,32,34,-1,36,38,40,42,44,-1,46,48,50,52,-1,54,-1,-1,-1,-1,-1,-1,-1,-1,-1,-1,-1,-1,-1,-1,-1,-1,-1,-1,-1,-1,-1,-1,-1,-1,-1],"split_conditions":[1.5578824E2,3E0,5E0,9E0,5E0,5E0,5E0,7E0,1E0,4E0,1E0,4E0,1.2E1,1.5874243E2,6E0,2E0,2E0,1.0643998E1,2E0,3.706931E1,4E0,3E0,6E0,8.689897E0,5E0,1.624E2,3E0,1E0,-1.0852994E0,3E0,-6.8701845E-1,5.3372707E0,8.933955E0,1.9241244E0,5.636678E0,-5.180604E-1,-2.1654823E-1,-1.064735E-1,-3.7685102E-1,-2.4225156E-1,-4.485596E-1,-5.5840206E-1,-5.8585566E-1,-5.1480305E-1,-6.129956E-1,6.2185297E0,1.3985908E1,4.664861E0,5.7047243E0,5.105914E0,6.7416086E0,5.566599E-1,-1.5630852E-1,-3.1533015E-1,-7.1025616E-1],"split_indices":[3,1,1,0,1,0,0,0,1,0,2,0,0,4,0,1,1,0,1,5,1,0,2,0,2,4,2,2,0,2,0,0,0,0,0,0,0,0,0,0,0,0,0,0,0,0,0,0,0,0,0,0,0,0,0],"split_type":[0,0,0,0,0,0,0,0,0,0,0,0,0,0,0,0,0,0,0,0,0,0,0,0,0,0,0,0,0,0,0,0,0,0,0,0,0,0,0,0,0,0,0,0,0,0,0,0,0,0,0,0,0,0,0],"sum_hessian":[1.27014E5,1.19737E5,7.277E3,1.141E4,1.08327E5,7.122E3,1.55E2,8.36E2,1.0574E4,8.3476E4,2.4851E4,1.44E2,6.978E3,1.08E2,4.7E1,6.15E2,2.21E2,1.4E1,1.056E4,3.5257E4,4.8219E4,4.639E3,2.0212E4,6E1,8.4E1,6.63E3,3.48E2,1.03E2,5E0,1.7E1,3E1,9.5E1,5.2E2,4E1,1.81E2,5.404E3,5.156E3,2.5783E4,9.474E3,2.1947E4,2.6272E4,1.572E3,3.067E3,1.9448E4,7.64E2,8.1E1,3E0,6.45E3,1.8E2,2.41E2,1.07E2,1.7E1,8.6E1,1.1E1,6E0],"tree_param":{"num_deleted":"0","num_feature":"7","num_nodes":"55","size_leaf_vector":"1"}},{"base_weights":[6.6009406E-3,-2.5598905E0,4.223064E1,1.9860294E0,-3.0387228E0,4.320066E1,-2.3313737E0,6.746407E1,-3.1966758E0,-2.5247965E0,-4.764861E0,6.822355E1,4.267458E1,-8.394655E-1,-5.670678E0,8.9922134E1,5.8651733E1,9.650558E0,-3.3379822E0,-3.6676059E0,-1.9460149E0,-5.190321E0,-4.666959E0,9.940264E0,6.492226E1,4.1699314E1,4.6527775E1,1.1195537E0,-3.4475238E0,-4.434854E0,-6.205328E-1,1.0872807E1,8.435339E0,2.258772E0,6.5087867E0,1.4340517E-1,-3.792964E-1,-5.697257E-1,-3.4527323E-1,-8.699935E-2,-3.2608056E-1,-5.322544E-1,-5.0759953E-1,-4.613677E-1,-5.24043E-1,6.0298066E0,8.973723E0,4.6084447E0,4.1048336E0,1.1189232E1,4.630747E0,5.0799555E-1,-1.2846763E-1,-9.8407835E-1,-9.743842E-2,-8.774104E-1,-3.3440664E-1],"categories":[],"categories_nodes":[],"categories_segments":[],"categories_sizes":[],"default_left":[0,0,0,0,0,0,0,0,0,0,0,0,0,0,0,0,0,0,0,0,0,0,0,0,0,0,0,0,0,0,0,0,0,0,0,0,0,0,0,0,0,0,0,0,0,0,0,0,0,0,0,0,0,0,0,0,0],"id":11,"left_children":[1,3,5,7,9,11,13,15,17,19,21,23,25,27,29,31,33,-1,35,37,39,41,43,-1,45,47,49,51,53,55,-1,-1,-1,-1,-1,-1,-1,-1,-1,-1,-1,-1,-1,-1,-1,-1,-1,-1,-1,-1,-1,-1,-1,-1,-1,-1,-1],"loss_changes":[1.3764424E7,2.6064362E5,3.14699E5,3.8725772E6,9.6086625E4,9.0857E4,7.724215E2,1.60375E5,1.4930878E5,5.5207625E4,1.0109375E3,8.471625E3,2.4286E4,5.607665E2,4.1954346E0,1.533425E4,1.3872612E5,0E0,2.2935344E4,1.2219156E4,7.8395125E4,4.3125E1,5.9346875E2,0E0,9.965375E3,1.4034E4,1.4993E4,6.063943E2,7.3354816E2,5.5856445E1,0E0,0E0,0E0,0E0,0E0,0E0,0E0,0E0,0E0,0E0,0E0,0E0,0E0,0E0,0E0,0E0,0E0,0E0,0E0,0E0,0E0,0E0,0E0,0E0,0E0,0E0,0E0],"parents":[2147483647,0,0,1,1,2,2,3,3,4,4,5,5,6,6,7,7,8,8,9,9,10,10,11,11,12,12,13,13,14,14,15,15,16,16,18,18,19,19,20,20,21,21,22,22,24,24,25,25,26,26,27,27,28,28,29,29],"right_children":[2,4,6,8,10,12,14,16,18,20,22,24,26,28,30,32,34,-1,36,38,40,42,44,-1,46,48,50,52,54,56,-1,-1,-1,-1,-1,-1,-1,-1,-1,-1,-1,-1,-1,-1,-1,-1,-1,-1,-1,-1,-1,-1,-1,-1,-1,-1,-1],"split_conditions":[1.5578824E2,3E0,5E0,9E0,5E0,5E0,5E0,4E0,1E0,1.4972902E1,1E0,2E0,1.1E1,3E0,6E0,2E0,2E0,9.650558E0,1E1,1.1619167E1,3.706931E1,1.5638766E1,5E0,9.940264E0,1.624E2,6E0,4E0,1.5583891E2,1.5583891E2,1E0,-6.205328E-1,1.0872807E1,8.435339E0,2.258772E0,6.5087867E0,1.4340517E-1,-3.792964E-1,-5.697257E-1,-3.4527323E-1,-8.699935E-2,-3.2608056E-1,-5.322544E-1,-5.0759953E-1,-4.613677E-1,-5.24043E-1,6.0298066E0,8.973723E0,4.6084447E0,4.1048336E0,1.1189232E1,4.630747E0,5.0799555E-1,-1.2846763E-1,-9.8407835E-1,-9.743842E-2,-8.774104E-1,-3.3440664E-1],"split_indices":[3,1,1,0,1,0,0,0,1,5,2,0,0,2,0,0,1,0,0,5,5,5,2,0,4,0,1,4,4,2,0,0,0,0,0,0,0,0,0,0,0,0,0,0,0,0,0,0,0,0,0,0,0,0,0,0,0],"split_type":[0,0,0,0,0,0,0,0,0,0,0,0,0,0,0,0,0,0,0,0,0,0,0,0,0,0,0,0,0,0,0,0,0,0,0,0,0,0,0,0,0,0,0,0,0,0,0,0,0,0,0,0,0,0,0,0,0],"sum_hessian":[1.27014E5,1.19737E5,7.277E3,1.141E4,1.08327E5,7.122E3,1.55E2,8.36E2,1.0574E4,8.3476E4,2.4851E4,1.44E2,6.978E3,1.08E2,4.7E1,2.33E2,6.03E2,1.4E1,1.056E4,2.8062E4,5.5414E4,4.639E3,2.0212E4,1.1E1,1.33E2,5.578E3,1.4E3,6.2E1,4.6E1,1.7E1,3E1,4.9E1,1.84E2,9.2E1,5.11E2,9.19E2,9.641E3,2.684E3,2.5378E4,3.0475E4,2.4939E4,2.13E3,2.509E3,1.8502E4,1.71E3,1.15E2,1.8E1,7.12E2,4.866E3,3E0,1.397E3,2.3E1,3.9E1,1.2E1,3.4E1,2E0,1.5E1],"tree_param":{"num_deleted":"0","num_feature":"7","num_nodes":"57","size_leaf_vector":"1"}},{"base_weights":[6.5792194E-3,-2.3036163E0,3.8014027E1,1.7907119E0,-2.7348814E0,3.888754E1,-2.114482E0,6.075121E1,-2.876118E0,-2.2723327E0,-4.2884564E0,6.1573223E1,3.8410633E1,-7.6195925E-1,-5.141784E0,6.845253E1,3.910811E1,8.74984E0,-3.0042064E0,-1.6059442E0,-3.208921E0,-4.6715126E0,-4.2003117E0,5.9466515E1,1.08667816E2,3.8004383E1,4.6019356E1,-4.775706E0,5.528975E-1,-4.638825E0,-6.589146E-1,4.2759132E0,7.3055444E0,3.0990925E0,5.742412E0,-4.3363118E-1,-1.6074577E-1,-2.8364864E-1,-9.8863475E-2,-1.636666E-1,-4.5016956E-1,-4.508352E-1,-4.753645E-1,-3.999363E-1,-4.3439728E-1,7.1883783E0,4.965551E0,2.3446908E0,1.2411132E1,3.7741907E0,4.7149305E0,4.136272E0,5.6027575E0,-8.35175E-2,-1.139109E0,1.2305785E0,-1.0428021E-1,-6.096725E-1,-3.4736076E-1],"categories":[],"categories_nodes":[],"categories_segments":[],"categories_sizes":[],"default_left":[0,0,0,0,0,0,0,0,0,0,0,0,0,0,0,0,0,0,0,0,0,0,0,0,0,0,0,0,0,0,0,0,0,0,0,0,0,0,0,0,0,0,0,0,0,0,0,0,0,0,0,0,0,0,0,0,0,0,0],"id":12,"left_children":[1,3,5,7,9,11,13,15,17,19,21,23,25,27,29,31,33,-1,35,37,39,41,43,45,47,49,51,53,55,57,-1,-1,-1,-1,-1,-1,-1,-1,-1,-1,-1,-1,-1,-1,-1,-1,-1,-1,-1,-1,-1,-1,-1,-1,-1,-1,-1,-1,-1],"loss_changes":[1.1152593E7,2.1143112E5,2.55196E5,3.1400095E6,7.783519E4,7.4698E4,6.3482336E2,1.368345E5,1.22678305E5,5.209547E4,8.1953125E2,7.9240625E3,1.9824E4,5.778881E2,4.376465E0,6.9727E4,3.1226062E4,0E0,1.9642992E4,3.7048664E4,7.052691E4,4.075E1,5.66125E2,1.3608E4,3.6705195E3,1.4137E4,1.3947625E4,6.943258E2,1.5694211E3,4.50744E1,0E0,0E0,0E0,0E0,0E0,0E0,0E0,0E0,0E0,0E0,0E0,0E0,0E0,0E0,0E0,0E0,0E0,0E0,0E0,0E0,0E0,0E0,0E0,0E0,0E0,0E0,0E0,0E0,0E0],"parents":[2147483647,0,0,1,1,2,2,3,3,4,4,5,5,6,6,7,7,8,8,9,9,10,10,11,11,12,12,13,13,14,14,15,15,16,16,18,18,19,19,20,20,21,21,22,22,23,23,24,24,25,25,26,26,27,27,28,28,29,29],"right_children":[2,4,6,8,10,12,14,16,18,20,22,24,26,28,30,32,34,-1,36,38,40,42,44,46,48,50,52,54,56,58,-1,-1,-1,-1,-1,-1,-1,-1,-1,-1,-1,-1,-1,-1,-1,-1,-1,-1,-1,-1,-1,-1,-1,-1,-1,-1,-1,-1,-1],"split_conditions":[1.5578824E2,3E0,5E0,9E0,5E0,5E0,5E0,7E0,1E0,6E0,1E0,5E0,1.2E1,1.5114238E2,1.5639394E2,2E0,3.706931E1,8.74984E0,2E0,1.4972902E1,4E0,3E0,3E0,4E0,4E0,1.624E2,3E0,4E0,1.5583891E2,1.5583891E2,-6.589146E-1,4.2759132E0,7.3055444E0,3.0990925E0,5.742412E0,-4.3363118E-1,-1.6074577E-1,-2.8364864E-1,-9.8863475E-2,-1.636666E-1,-4.5016956E-1,-4.508352E-1,-4.753645E-1,-3.999363E-1,-4.3439728E-1,7.1883783E0,4.965551E0,2.3446908E0,1.2411132E1,3.7741907E0,4.7149305E0,4.136272E0,5.6027575E0,-8.35175E-2,-1.139109E0,1.2305785E0,-1.0428021E-1,-6.096725E-1,-3.4736076E-1],"split_indices":[3,1,1,0,1,0,0,0,1,0,2,2,0,4,4,1,5,0,1,5,1,0,0,0,0,4,2,0,4,4,0,0,0,0,0,0,0,0,0,0,0,0,0,0,0,0,0,0,0,0,0,0,0,0,0,0,0,0,0],"split_type":[0,0,0,0,0,0,0,0,0,0,0,0,0,0,0,0,0,0,0,0,0,0,0,0,0,0,0,0,0,0,0,0,0,0,0,0,0,0,0,0,0,0,0,0,0,0,0,0,0,0,0,0,0,0,0,0,0,0,0],"sum_hessian":[1.27014E5,1.19737E5,7.277E3,1.141E4,1.08327E5,7.122E3,1.55E2,8.36E2,1.0574E4,8.3476E4,2.4851E4,1.44E2,6.978E3,1.08E2,4.7E1,6.15E2,2.21E2,1.4E1,1.056E4,4.8775E4,3.4701E4,4.639E3,2.0212E4,1.4E2,4E0,6.63E3,3.48E2,2.6E1,8.2E1,3.8E1,9E0,9.5E1,5.2E2,1.55E2,6.6E1,5.404E3,5.156E3,1.6293E4,3.2482E4,1.5659E4,1.9042E4,1.572E3,3.067E3,8.438E3,1.1774E4,5.9E1,8.1E1,1E0,3E0,6.45E3,1.8E2,2.41E2,1.07E2,1.7E1,9E0,9E0,7.3E1,1.5E1,2.3E1],"tree_param":{"num_deleted":"0","num_feature":"7","num_nodes":"59","size_leaf_vector":"1"}},{"base_weights":[6.4664753E-3,-2.073039E0,3.421859E1,1.614145E0,-2.4614186E0,3.500512E1,-1.9140097E0,5.470049E1,-2.5877352E0,-2.0451114E0,-3.8596814E0,5.5601486E1,3.457218E1,-6.866467E-1,-4.661271E0,7.4294846E1,4.7018734E1,7.933187E0,-2.7038422E0,-3.5705986E0,-1.6972198E0,-4.2045608E0,-3.7803216E0,5.360606E1,1.007522E2,3.3731796E1,3.789406E1,-1.565937E-1,-9.7597915E-1,-4.199482E0,-5.996123E-1,9.170099E0,6.918889E0,1.6316807E0,5.250362E0,1.6136213E-1,-3.1155166E-1,-3.2710016E-1,-5.1302904E-1,-6.709411E-2,-2.4486963E-1,-4.3229946E-1,-4.1023356E-1,-3.7491092E-1,-4.5689073E-1,6.48152E0,4.475052E0,2.2274559E0,1.1480296E1,3.4935207E0,3.1615596E0,9.975548E0,3.7689953E0,-4.3434176E-1,1.2946992E-1,-5.525157E-1,-3.14072E-1],"categories":[],"categories_nodes":[],"categories_segments":[],"categories_sizes":[],"default_left":[0,0,0,0,0,0,0,0,0,0,0,0,0,0,0,0,0,0,0,0,0,0,0,0,0,0,0,0,0,0,0,0,0,0,0,0,0,0,0,0,0,0,0,0,0,0,0,0,0,0,0,0,0,0,0,0,0],"id":13,"left_children":[1,3,5,7,9,11,13,15,17,19,21,23,25,27,29,31,33,-1,35,37,39,41,43,45,47,49,51,53,-1,55,-1,-1,-1,-1,-1,-1,-1,-1,-1,-1,-1,-1,-1,-1,-1,-1,-1,-1,-1,-1,-1,-1,-1,-1,-1,-1,-1],"loss_changes":[9.036464E6,1.7147203E5,2.06904E5,2.5455075E6,6.3050562E4,6.1593E4,5.228138E2,1.2249125E5,1.0079801E5,4.4295562E4,6.643125E2,7.6628125E3,1.8205E4,5.226797E2,4.4074707E0,1.4452125E4,1.00854625E5,0E0,1.8776016E4,7.2265E3,5.242389E4,3.8445312E1,4.8040625E2,1.1095531E4,2.9561719E3,1.3103E4,1.3929625E4,6.3755945E2,0E0,3.7386414E1,0E0,0E0,0E0,0E0,0E0,0E0,0E0,0E0,0E0,0E0,0E0,0E0,0E0,0E0,0E0,0E0,0E0,0E0,0E0,0E0,0E0,0E0,0E0,0E0,0E0,0E0,0E0],"parents":[2147483647,0,0,1,1,2,2,3,3,4,4,5,5,6,6,7,7,8,8,9,9,10,10,11,11,12,12,13,13,14,14,15,15,16,16,18,18,19,19,20,20,21,21,22,22,23,23,24,24,25,25,26,26,27,27,29,29],"right_children":[2,4,6,8,10,12,14,16,18,20,22,24,26,28,30,32,34,-1,36,38,40,42,44,46,48,50,52,54,-1,56,-1,-1,-1,-1,-1,-1,-1,-1,-1,-1,-1,-1,-1,-1,-1,-1,-1,-1,-1,-1,-1,-1,-1,-1,-1,-1,-1],"split_conditions":[1.5578824E2,3E0,5E0,9E0,5E0,5E0,5E0,4E0,1E0,1E0,1E0,5E0,1.1E1,1.5874243E2,1.5639394E2,2E0,2E0,7.933187E0,1E1,1E1,4E0,1.5638766E1,6E0,4E0,4E0,9E0,4E0,1.5114238E2,-9.7597915E-1,1.5583891E2,-5.996123E-1,9.170099E0,6.918889E0,1.6316807E0,5.250362E0,1.6136213E-1,-3.1155166E-1,-3.2710016E-1,-5.1302904E-1,-6.709411E-2,-2.4486963E-1,-4.3229946E-1,-4.1023356E-1,-3.7491092E-1,-4.5689073E-1,6.48152E0,4.475052E0,2.2274559E0,1.1480296E1,3.4935207E0,3.1615596E0,9.975548E0,3.7689953E0,-4.3434176E-1,1.2946992E-1,-5.525157E-1,-3.14072E-1],"split_indices":[3,1,1,0,1,0,0,0,1,2,2,2,0,4,4,0,1,0,0,0,0,5,2,0,0,0,1,4,0,4,0,0,0,0,0,0,0,0,0,0,0,0,0,0,0,0,0,0,0,0,0,0,0,0,0,0,0],"split_type":[0,0,0,0,0,0,0,0,0,0,0,0,0,0,0,0,0,0,0,0,0,0,0,0,0,0,0,0,0,0,0,0,0,0,0,0,0,0,0,0,0,0,0,0,0,0,0,0,0,0,0,0,0,0,0,0,0],"sum_hessian":[1.27014E5,1.19737E5,7.277E3,1.141E4,1.08327E5,7.122E3,1.55E2,8.36E2,1.0574E4,8.3476E4,2.4851E4,1.44E2,6.978E3,1.08E2,4.7E1,2.33E2,6.03E2,1.4E1,1.056E4,1.55E4,6.7976E4,4.639E3,2.0212E4,1.4E2,4E0,5.578E3,1.4E3,1.03E2,5E0,3.8E1,9E0,4.9E1,1.84E2,9.2E1,5.11E2,9.19E2,9.641E3,1.3005E4,2.495E3,2.8735E4,3.9241E4,2.13E3,2.509E3,1.9448E4,7.64E2,5.9E1,8.1E1,1E0,3E0,3.546E3,2.032E3,3E0,1.397E3,2.6E1,7.7E1,1.5E1,2.3E1],"tree_param":{"num_deleted":"0","num_feature":"7","num_nodes":"57","size_leaf_vector":"1"}},{"base_weights":[6.372822E-3,-1.8655019E0,3.0802544E1,1.455426E0,-2.215303E0,3.1510935E1,-1.7402185E0,4.925788E1,-2.3282251E0,-1.8406142E0,-3.4737802E0,5.0211437E1,3.1117886E1,-6.297337E-1,-4.22569E0,5.8618397E1,3.6001293E1,7.1927567E0,-2.4334717E0,-2.796629E0,-1.3564404E0,-3.288459E0,-3.5985463E0,7.775998E1,4.736969E1,3.0359808E1,3.411446E1,1.1454488E0,-2.995835E0,-3.2563825E0,-4.6522012E-1,7.533746E0,5.3276076E0,1.1691573E0,4.1109633E0,-2.9463825E-1,9.810069E-2,-4.6257052E-1,-2.6030096E-1,-3.984103E-2,-2.527073E-1,-3.394778E-1,-2.983788E-1,-3.5547927E-1,-4.0947875E-1,3.182544E0,8.376434E0,4.2707944E0,6.801081E0,3.4195924E0,2.979159E0,3.3648117E0,5.7482753E0,4.7958633E-1,-1.0734359E-1,-8.481746E-1,-8.726158E-2,-7.74821E-1,-2.2106409E-1],"categories":[],"categories_nodes":[],"categories_segments":[],"categories_sizes":[],"default_left":[0,0,0,0,0,0,0,0,0,0,0,0,0,0,0,0,0,0,0,0,0,0,0,0,0,0,0,0,0,0,0,0,0,0,0,0,0,0,0,0,0,0,0,0,0,0,0,0,0,0,0,0,0,0,0,0,0,0,0],"id":14,"left_children":[1,3,5,7,9,11,13,15,17,19,21,23,25,27,29,31,33,-1,35,37,39,41,43,45,47,49,51,53,55,57,-1,-1,-1,-1,-1,-1,-1,-1,-1,-1,-1,-1,-1,-1,-1,-1,-1,-1,-1,-1,-1,-1,-1,-1,-1,-1,-1,-1,-1],"loss_changes":[7.322037E6,1.3909847E5,1.67835E5,2.0639975E6,5.1074312E4,5.0793E4,4.2791116E2,1.0175175E5,8.282041E4,3.8635844E4,5.628125E2,7.668E3,1.4818E4,4.612601E2,4.694824E0,3.9663E4,4.2859E4,0E0,1.8498617E4,9.926328E3,6.2146984E4,3.1414844E2,3.076875E2,6.4385156E2,9.989375E3,1.1142E4,1.3333375E4,5.154385E2,5.400449E2,6.74227E1,0E0,0E0,0E0,0E0,0E0,0E0,0E0,0E0,0E0,0E0,0E0,0E0,0E0,0E0,0E0,0E0,0E0,0E0,0E0,0E0,0E0,0E0,0E0,0E0,0E0,0E0,0E0,0E0,0E0],"parents":[2147483647,0,0,1,1,2,2,3,3,4,4,5,5,6,6,7,7,8,8,9,9,10,10,11,11,12,12,13,13,14,14,15,15,16,16,18,18,19,19,20,20,21,21,22,22,23,23,24,24,25,25,26,26,27,27,28,28,29,29],"right_children":[2,4,6,8,10,12,14,16,18,20,22,24,26,28,30,32,34,-1,36,38,40,42,44,46,48,50,52,54,56,58,-1,-1,-1,-1,-1,-1,-1,-1,-1,-1,-1,-1,-1,-1,-1,-1,-1,-1,-1,-1,-1,-1,-1,-1,-1,-1,-1,-1,-1],"split_conditions":[1.5578824E2,3E0,5E0,9E0,5E0,5E0,5E0,6E0,1E0,1.4972902E1,3E0,2E0,1.1E1,3E0,6E0,3E0,2E0,7.1927567E0,1.2E1,1.1619167E1,3.706931E1,4E0,5E0,2E0,1.5874243E2,6E0,1.7406818E2,1.5583891E2,1.5583891E2,1E0,-4.6522012E-1,7.533746E0,5.3276076E0,1.1691573E0,4.1109633E0,-2.9463825E-1,9.810069E-2,-4.6257052E-1,-2.6030096E-1,-3.984103E-2,-2.527073E-1,-3.394778E-1,-2.983788E-1,-3.5547927E-1,-4.0947875E-1,3.182544E0,8.376434E0,4.2707944E0,6.801081E0,3.4195924E0,2.979159E0,3.3648117E0,5.7482753E0,4.7958633E-1,-1.0734359E-1,-8.481746E-1,-8.726158E-2,-7.74821E-1,-2.2106409E-1],"split_indices":[3,1,1,0,1,0,0,0,1,5,0,0,0,2,0,0,1,0,0,5,5,2,2,2,4,0,4,4,4,2,0,0,0,0,0,0,0,0,0,0,0,0,0,0,0,0,0,0,0,0,0,0,0,0,0,0,0,0,0],"split_type":[0,0,0,0,0,0,0,0,0,0,0,0,0,0,0,0,0,0,0,0,0,0,0,0,0,0,0,0,0,0,0,0,0,0,0,0,0,0,0,0,0,0,0,0,0,0,0,0,0,0,0,0,0,0,0,0,0,0,0],"sum_hessian":[1.27014E5,1.19737E5,7.277E3,1.141E4,1.08327E5,7.122E3,1.55E2,8.36E2,1.0574E4,8.3476E4,2.4851E4,1.44E2,6.978E3,1.08E2,4.7E1,4.88E2,3.48E2,1.4E1,1.056E4,2.8062E4,5.5414E4,1.001E4,1.4841E4,1.1E1,1.33E2,5.578E3,1.4E3,6.2E1,4.6E1,1.7E1,3E1,1.15E2,3.73E2,6.1E1,2.87E2,9.181E3,1.379E3,2.684E3,2.5378E4,3.0475E4,2.4939E4,7.413E3,2.597E3,1.3646E4,1.195E3,2E0,9E0,1.11E2,2.2E1,7.12E2,4.866E3,1.375E3,2.5E1,2.3E1,3.9E1,1.2E1,3.4E1,2E0,1.5E1],"tree_param":{"num_deleted":"0","num_feature":"7","num_nodes":"59","size_leaf_vector":"1"}},{"base_weights":[6.1988444E-3,-1.6787621E0,2.7727255E1,1.3120865E0,-1.9937952E0,2.83652E1,-1.579173E0,4.4353767E1,-2.0947409E0,-1.6565651E0,-3.1264586E0,4.5346363E1,2.8008324E1,-1.0988027E0,-7.2520494E0,5.0499832E1,2.7100035E1,6.5214324E0,-2.1901429E0,-3.0298457E0,-1.3433874E0,-3.434305E0,-3.0556364E0,4.3459175E1,8.949583E1,8.97502E0,2.7968906E1,-4.0417337E0,-1.9560215E-1,-8.502461E-1,-3.8009807E-1,2.9326012E0,5.4304414E0,1.9829959E0,4.36229E0,1.7467532E-1,-2.5655583E-1,-2.7612773E-1,-4.428072E-1,1.8304901E-1,-1.5437534E-1,-3.5405412E-1,-3.3427417E-1,-3.0138418E-1,-3.505825E-1,5.3409486E0,3.5648468E0,1.902543E0,1.0235707E1,2.766116E0,3.3768337E0,-5.0397027E-2,-7.549853E-1,1.2477044E-1,-3.4065253E-1],"categories":[],"categories_nodes":[],"categories_segments":[],"categories_sizes":[],"default_left":[0,0,0,0,0,0,0,0,0,0,0,0,0,0,0,0,0,0,0,0,0,0,0,0,0,0,0,0,0,0,0,0,0,0,0,0,0,0,0,0,0,0,0,0,0,0,0,0,0,0,0,0,0,0,0],"id":15,"left_children":[1,3,5,7,9,11,13,15,17,19,21,23,25,27,29,31,33,-1,35,37,39,41,43,45,47,-1,49,51,53,-1,-1,-1,-1,-1,-1,-1,-1,-1,-1,-1,-1,-1,-1,-1,-1,-1,-1,-1,-1,-1,-1,-1,-1,-1,-1],"loss_changes":[5.932777E6,1.1282166E5,1.36113E5,1.6733515E6,4.1372688E4,4.18965E4,4.171441E2,8.7389125E4,6.804939E4,3.5897797E4,5.3134375E2,8.1917188E3,1.4475E4,3.846277E2,1.9465393E1,4.8031E4,2.580214E4,0E0,1.561334E4,5.808703E3,4.323192E4,3.3304688E1,3.6976562E2,9.0544375E3,2.5842969E3,0E0,1.15165E4,4.1816553E2,5.2329706E2,0E0,0E0,0E0,0E0,0E0,0E0,0E0,0E0,0E0,0E0,0E0,0E0,0E0,0E0,0E0,0E0,0E0,0E0,0E0,0E0,0E0,0E0,0E0,0E0,0E0,0E0],"parents":[2147483647,0,0,1,1,2,2,3,3,4,4,5,5,6,6,7,7,8,8,9,9,10,10,11,11,12,12,13,13,14,14,15,15,16,16,18,18,19,19,20,20,21,21,22,22,23,23,24,24,26,26,27,27,28,28],"right_children":[2,4,6,8,10,12,14,16,18,20,22,24,26,28,30,32,34,-1,36,38,40,42,44,46,48,-1,50,52,54,-1,-1,-1,-1,-1,-1,-1,-1,-1,-1,-1,-1,-1,-1,-1,-1,-1,-1,-1,-1,-1,-1,-1,-1,-1,-1],"split_conditions":[1.5578824E2,3E0,5E0,9E0,5E0,5E0,1.5874243E2,7E0,1E0,1E0,1E0,5E0,4E0,1.5114238E2,6E0,2E0,3.706931E1,6.5214324E0,1E1,1E1,2E0,1.5638766E1,5E0,4E0,4E0,8.97502E0,1.2E1,4E0,5E0,-8.502461E-1,-3.8009807E-1,2.9326012E0,5.4304414E0,1.9829959E0,4.36229E0,1.7467532E-1,-2.5655583E-1,-2.7612773E-1,-4.428072E-1,1.8304901E-1,-1.5437534E-1,-3.5405412E-1,-3.3427417E-1,-3.0138418E-1,-3.505825E-1,5.3409486E0,3.5648468E0,1.902543E0,1.0235707E1,2.766116E0,3.3768337E0,-5.0397027E-2,-7.549853E-1,1.2477044E-1,-3.4065253E-1],"split_indices":[3,1,1,0,1,0,4,0,1,2,2,2,1,4,0,1,5,0,0,0,0,5,2,0,0,0,0,0,0,0,0,0,0,0,0,0,0,0,0,0,0,0,0,0,0,0,0,0,0,0,0,0,0,0,0],"split_type":[0,0,0,0,0,0,0,0,0,0,0,0,0,0,0,0,0,0,0,0,0,0,0,0,0,0,0,0,0,0,0,0,0,0,0,0,0,0,0,0,0,0,0,0,0,0,0,0,0,0,0,0,0,0,0],"sum_hessian":[1.27014E5,1.19737E5,7.277E3,1.141E4,1.08327E5,7.122E3,1.55E2,8.36E2,1.0574E4,8.3476E4,2.4851E4,1.44E2,6.978E3,1.44E2,1.1E1,6.15E2,2.21E2,1.4E1,1.056E4,1.55E4,6.7976E4,4.639E3,2.0212E4,1.4E2,4E0,3E0,6.975E3,3.3E1,1.11E2,7E0,4E0,9.5E1,5.2E2,1.55E2,6.6E1,9.19E2,9.641E3,1.3005E4,2.495E3,4.036E3,6.394E4,2.13E3,2.509E3,1.8502E4,1.71E3,5.9E1,8.1E1,1E0,3E0,6.629E3,3.46E2,1.7E1,1.6E1,7.7E1,3.4E1],"tree_param":{"num_deleted":"0","num_feature":"7","num_nodes":"55","size_leaf_vector":"1"}},{"base_weights":[5.9962976E-3,-1.5107265E0,2.4959188E1,1.1827312E0,-1.7944345E0,2.5533756E1,-1.4356892E0,3.9935966E1,-1.8846581E0,-1.4909171E0,-2.8138669E0,4.095686E1,2.5209658E1,-9.959658E-1,-6.629373E0,5.559684E1,3.3802555E1,5.9127663E1,-1.9711367E0,-9.608206E-1,-2.2359605E0,-2.6493235E0,-2.9246626E0,3.917642E1,8.297389E1,8.301894E0,2.5172897E1,2.5365755E-1,-2.82175E0,-7.758495E-1,-3.4969026E-1,7.065882E0,5.1225514E0,9.385876E-1,3.8171597E0,1.706839E0,6.0912724E0,-2.4384092E-1,1.1393467E-1,-4.5274287E-2,-2.2373855E-1,-8.2401775E-2,-3.396953E-1,-2.7452683E-1,-2.3745032E-1,-3.0809388E-1,-2.81587E-1,6.605137E0,3.6394298E0,1.8074158E0,9.468029E0,2.4959655E0,3.2952135E0,3.297894E-1,-2.2884908E-1,-4.9513015E-1,2.7249245E-2],"categories":[],"categories_nodes":[],"categories_segments":[],"categories_sizes":[],"default_left":[0,0,0,0,0,0,0,0,0,0,0,0,0,0,0,0,0,0,0,0,0,0,0,0,0,0,0,0,0,0,0,0,0,0,0,0,0,0,0,0,0,0,0,0,0,0,0,0,0,0,0,0,0,0,0,0,0],"id":16,"left_children":[1,3,5,7,9,11,13,15,17,19,21,23,25,27,29,31,33,35,37,39,41,43,45,47,49,-1,51,53,55,-1,-1,-1,-1,-1,-1,-1,-1,-1,-1,-1,-1,-1,-1,-1,-1,-1,-1,-1,-1,-1,-1,-1,-1,-1,-1,-1,-1],"loss_changes":[4.8071845E6,9.150059E4,1.104115E5,1.3565154E6,3.3514188E4,3.4573E4,3.496677E2,7.851825E4,5.591298E4,3.296664E4,4.453125E2,7.5966406E3,1.27415E4,3.3153946E2,1.5312622E1,1.17871875E4,6.4074938E4,8.649609E1,1.5352594E4,3.163482E4,5.688264E4,2.574453E2,2.4364844E2,8.1385938E3,2.0874453E3,0E0,1.075E4,6.8083154E2,3.901208E2,0E0,0E0,0E0,0E0,0E0,0E0,0E0,0E0,0E0,0E0,0E0,0E0,0E0,0E0,0E0,0E0,0E0,0E0,0E0,0E0,0E0,0E0,0E0,0E0,0E0,0E0,0E0,0E0],"parents":[2147483647,0,0,1,1,2,2,3,3,4,4,5,5,6,6,7,7,8,8,9,9,10,10,11,11,12,12,13,13,14,14,15,15,16,16,17,17,18,18,19,19,20,20,21,21,22,22,23,23,24,24,26,26,27,27,28,28],"right_children":[2,4,6,8,10,12,14,16,18,20,22,24,26,28,30,32,34,36,38,40,42,44,46,48,50,-1,52,54,56,-1,-1,-1,-1,-1,-1,-1,-1,-1,-1,-1,-1,-1,-1,-1,-1,-1,-1,-1,-1,-1,-1,-1,-1,-1,-1,-1,-1],"split_conditions":[1.5578824E2,3E0,5E0,9E0,5E0,5E0,1.5874243E2,4E0,1E0,6E0,3E0,5E0,4E0,3E0,6E0,2E0,2E0,1.1619167E1,1.2E1,3.706931E1,4E0,4E0,2E0,2E0,4E0,8.301894E0,1.624E2,4E0,4E0,-7.758495E-1,-3.4969026E-1,7.065882E0,5.1225514E0,9.385876E-1,3.8171597E0,1.706839E0,6.0912724E0,-2.4384092E-1,1.1393467E-1,-4.5274287E-2,-2.2373855E-1,-8.2401775E-2,-3.396953E-1,-2.7452683E-1,-2.3745032E-1,-3.0809388E-1,-2.81587E-1,6.605137E0,3.6394298E0,1.8074158E0,9.468029E0,2.4959655E0,3.2952135E0,3.297894E-1,-2.2884908E-1,-4.9513015E-1,2.7249245E-2],"split_indices":[3,1,1,0,1,0,4,0,1,0,0,2,1,2,0,0,1,5,0,5,1,2,2,0,0,0,4,0,2,0,0,0,0,0,0,0,0,0,0,0,0,0,0,0,0,0,0,0,0,0,0,0,0,0,0,0,0],"split_type":[0,0,0,0,0,0,0,0,0,0,0,0,0,0,0,0,0,0,0,0,0,0,0,0,0,0,0,0,0,0,0,0,0,0,0,0,0,0,0,0,0,0,0,0,0,0,0,0,0,0,0,0,0,0,0,0,0],"sum_hessian":[1.27014E5,1.19737E5,7.277E3,1.141E4,1.08327E5,7.122E3,1.55E2,8.36E2,1.0574E4,8.3476E4,2.4851E4,1.44E2,6.978E3,1.44E2,1.1E1,2.33E2,6.03E2,1.4E1,1.056E4,4.8775E4,3.4701E4,1.001E4,1.4841E4,1.4E2,4E0,3E0,6.975E3,8.6E1,5.8E1,7E0,4E0,4.9E1,1.84E2,9.2E1,5.11E2,1E0,1.3E1,9.181E3,1.379E3,3.489E4,1.3885E4,1.5659E4,1.9042E4,7.413E3,2.597E3,6.08E3,8.761E3,1.1E1,1.29E2,1E0,3E0,6.793E3,1.82E2,3.9E1,4.7E1,3.4E1,2.4E1],"tree_param":{"num_deleted":"0","num_feature":"7","num_nodes":"57","size_leaf_vector":"1"}},{"base_weights":[5.8447025E-3,-1.3594631E0,2.2467953E1,1.0666153E0,-1.6150076E0,2.2985374E1,-1.3016877E0,3.5962616E1,-1.6954669E0,-2.3157687E0,-1.2484314E0,3.7009583E1,2.2690706E1,-8.989001E-1,-6.0602307E0,4.124712E1,2.113731E1,5.3734765E0,-1.774035E0,-2.1925483E0,-3.6938908E0,-6.241567E-1,-2.0329938E0,3.533143E1,7.6931595E1,2.2389067E1,2.8356833E1,-3.6512296E0,-5.534557E-2,-7.079627E-1,-3.2171503E-1,5.7102537E0,3.7493675E0,1.4602102E0,3.6038136E0,-2.8891298E-1,-6.0497135E-2,-2.3610584E-1,-5.2571077E-2,-3.8235188E-1,2.8339452E-1,-8.004614E-3,-2.439339E-1,5.305176E-2,-2.2354846E-1,4.403507E0,2.853204E0,1.7170448E0,8.757927E0,2.0877044E0,2.3394747E0,2.4264379E0,3.7264397E0,-6.425679E-2,-6.622094E-1,1.166585E-1,-2.7769238E-1],"categories":[],"categories_nodes":[],"categories_segments":[],"categories_sizes":[],"default_left":[0,0,0,0,0,0,0,0,0,0,0,0,0,0,0,0,0,0,0,0,0,0,0,0,0,0,0,0,0,0,0,0,0,0,0,0,0,0,0,0,0,0,0,0,0,0,0,0,0,0,0,0,0,0,0,0,0],"id":17,"left_children":[1,3,5,7,9,11,13,15,17,19,21,23,25,27,29,31,33,-1,35,37,39,41,43,45,47,49,51,53,55,-1,-1,-1,-1,-1,-1,-1,-1,-1,-1,-1,-1,-1,-1,-1,-1,-1,-1,-1,-1,-1,-1,-1,-1,-1,-1,-1,-1],"loss_changes":[3.8952875E6,7.42358E4,8.954125E4,1.0999174E6,2.7824688E4,2.8596E4,2.935549E2,6.4702375E4,4.6149977E4,6.3095938E3,3.4834508E4,6.9962188E3,1.12935E4,3.3645023E2,1.2002472E1,3.4518562E4,2.109214E4,0E0,1.376575E4,9.591625E3,2.5934062E3,3.9121008E4,1.6360742E4,7.0878906E3,1.6778105E3,9.59475E3,1.18181875E4,2.996479E2,3.7570438E2,0E0,0E0,0E0,0E0,0E0,0E0,0E0,0E0,0E0,0E0,0E0,0E0,0E0,0E0,0E0,0E0,0E0,0E0,0E0,0E0,0E0,0E0,0E0,0E0,0E0,0E0,0E0,0E0],"parents":[2147483647,0,0,1,1,2,2,3,3,4,4,5,5,6,6,7,7,8,8,9,9,10,10,11,11,12,12,13,13,14,14,15,15,16,16,18,18,19,19,20,20,21,21,22,22,23,23,24,24,25,25,26,26,27,27,28,28],"right_children":[2,4,6,8,10,12,14,16,18,20,22,24,26,28,30,32,34,-1,36,38,40,42,44,46,48,50,52,54,56,-1,-1,-1,-1,-1,-1,-1,-1,-1,-1,-1,-1,-1,-1,-1,-1,-1,-1,-1,-1,-1,-1,-1,-1,-1,-1,-1,-1],"split_conditions":[1.5578824E2,3E0,5E0,9E0,1.4972902E1,5E0,1.5874243E2,7E0,1E0,1.1E1,3.706931E1,5E0,1.2E1,1.5114238E2,6E0,3E0,3.706931E1,5.3734765E0,2E0,9E0,1.3323612E1,5E0,2E0,4E0,4E0,2E0,3E0,4E0,5E0,-7.079627E-1,-3.2171503E-1,5.7102537E0,3.7493675E0,1.4602102E0,3.6038136E0,-2.8891298E-1,-6.0497135E-2,-2.3610584E-1,-5.2571077E-2,-3.8235188E-1,2.8339452E-1,-8.004614E-3,-2.439339E-1,5.305176E-2,-2.2354846E-1,4.403507E0,2.853204E0,1.7170448E0,8.757927E0,2.0877044E0,2.3394747E0,2.4264379E0,3.7264397E0,-6.425679E-2,-6.622094E-1,1.166585E-1,-2.7769238E-1],"split_indices":[3,1,1,0,5,0,4,0,1,0,5,2,0,4,0,0,5,0,1,0,3,1,0,0,0,2,2,0,0,0,0,0,0,0,0,0,0,0,0,0,0,0,0,0,0,0,0,0,0,0,0,0,0,0,0,0,0],"split_type":[0,0,0,0,0,0,0,0,0,0,0,0,0,0,0,0,0,0,0,0,0,0,0,0,0,0,0,0,0,0,0,0,0,0,0,0,0,0,0,0,0,0,0,0,0,0,0,0,0,0,0,0,0,0,0,0,0],"sum_hessian":[1.27014E5,1.19737E5,7.277E3,1.141E4,1.08327E5,7.122E3,1.55E2,8.36E2,1.0574E4,3.7203E4,7.1124E4,1.44E2,6.978E3,1.44E2,1.1E1,6.15E2,2.21E2,1.4E1,1.056E4,3.4152E4,3.051E3,3.9609E4,3.1515E4,1.4E2,4E0,6.63E3,3.48E2,3.3E1,1.11E2,7E0,4E0,1.15E2,5E2,1.55E2,6.6E1,5.404E3,5.156E3,3.1016E4,3.136E3,2.992E3,5.9E1,3.0475E4,9.134E3,2.307E3,2.9208E4,5.9E1,8.1E1,1E0,3E0,2.657E3,3.973E3,2.41E2,1.07E2,1.7E1,1.6E1,7.7E1,3.4E1],"tree_param":{"num_deleted":"0","num_feature":"7","num_nodes":"57","size_leaf_vector":"1"}},{"base_weights":[5.6154886E-3,-1.2233602E0,2.0224781E1,9.6166646E-1,-1.4535142E0,2.069081E1,-1.1838088E0,3.23837E1,-1.5254452E0,-2.4634154E0,-1.2228633E0,3.343091E1,2.0423147E1,-6.400913E-2,-2.7505436E0,4.539221E1,2.7290369E1,4.871952E1,-1.5966647E0,-2.305883E0,-3.5760753E0,-9.1849965E-1,-2.2463882E0,3.0220749E1,5.198338E1,7.4407372E0,2.0389267E1,1.981161E0,-1.8991821E0,-6.4765816E0,-1.6007178E0,5.813821E0,4.170198E0,5.479364E-1,3.1198833E0,1.3528229E0,5.0266886E0,2.0120834E-1,-1.940831E-1,-2.6105055E-1,3.086183E-1,-2.0794736E-1,-4.6244216E-1,-9.422742E-3,-1.5220715E-1,-2.2213066E-1,-2.8811172E-1,5.0206175E0,2.574551E0,1.9667243E0,6.144428E0,1.9802914E0,2.271464E0,7.9468554E-1,-2.8706414E-1,-3.968879E-1,1.1085982E0,-6.918049E-1,-2.4046962E-1,-3.8541934E-1,1.544963E-1],"categories":[],"categories_nodes":[],"categories_segments":[],"categories_sizes":[],"default_left":[0,0,0,0,0,0,0,0,0,0,0,0,0,0,0,0,0,0,0,0,0,0,0,0,0,0,0,0,0,0,0,0,0,0,0,0,0,0,0,0,0,0,0,0,0,0,0,0,0,0,0,0,0,0,0,0,0,0,0,0,0],"id":18,"left_children":[1,3,5,7,9,11,13,15,17,19,21,23,25,27,29,31,33,35,37,39,41,43,45,47,49,-1,51,53,55,57,59,-1,-1,-1,-1,-1,-1,-1,-1,-1,-1,-1,-1,-1,-1,-1,-1,-1,-1,-1,-1,-1,-1,-1,-1,-1,-1,-1,-1,-1,-1],"loss_changes":[3.156203E6,6.021675E4,7.2637E4,8.918203E5,2.5230344E4,2.3607E4,2.735149E2,5.4218E4,3.791959E4,3.5218906E3,2.7470906E4,7.0647188E3,1.124775E4,3.4906073E2,2.6811194E2,8.581875E3,5.1318562E4,1.3678516E2,1.3120766E4,2.899075E4,3.906502E3,3.3818926E4,3.1539844E2,9.976797E3,4.9063516E3,0E0,9.06175E3,1.2963649E3,1.3608912E3,1.0328369E1,3.67479E2,0E0,0E0,0E0,0E0,0E0,0E0,0E0,0E0,0E0,0E0,0E0,0E0,0E0,0E0,0E0,0E0,0E0,0E0,0E0,0E0,0E0,0E0,0E0,0E0,0E0,0E0,0E0,0E0,0E0,0E0],"parents":[2147483647,0,0,1,1,2,2,3,3,4,4,5,5,6,6,7,7,8,8,9,9,10,10,11,11,12,12,13,13,14,14,15,15,16,16,17,17,18,18,19,19,20,20,21,21,22,22,23,23,24,24,26,26,27,27,28,28,29,29,30,30],"right_children":[2,4,6,8,10,12,14,16,18,20,22,24,26,28,30,32,34,36,38,40,42,44,46,48,50,-1,52,54,56,58,60,-1,-1,-1,-1,-1,-1,-1,-1,-1,-1,-1,-1,-1,-1,-1,-1,-1,-1,-1,-1,-1,-1,-1,-1,-1,-1,-1,-1,-1,-1],"split_conditions":[1.5578824E2,3E0,5E0,9E0,1E0,5E0,3E0,4E0,1E0,1E1,5E0,1.624E2,4E0,4E0,1.5583891E2,2E0,2E0,1.1619167E1,1E1,9E0,4E0,4E0,6E0,3E0,2E0,7.4407372E0,1.1E1,1.5583891E2,1.5639394E2,5E0,4E0,5.813821E0,4.170198E0,5.479364E-1,3.1198833E0,1.3528229E0,5.0266886E0,2.0120834E-1,-1.940831E-1,-2.6105055E-1,3.086183E-1,-2.0794736E-1,-4.6244216E-1,-9.422742E-3,-1.5220715E-1,-2.2213066E-1,-2.8811172E-1,5.0206175E0,2.574551E0,1.9667243E0,6.144428E0,1.9802914E0,2.271464E0,7.9468554E-1,-2.8706414E-1,-3.968879E-1,1.1085982E0,-6.918049E-1,-2.4046962E-1,-3.8541934E-1,1.544963E-1],"split_indices":[3,1,1,0,2,0,2,0,1,0,1,4,1,0,4,0,1,5,0,0,1,0,2,0,2,0,0,4,4,0,2,0,0,0,0,0,0,0,0,0,0,0,0,0,0,0,0,0,0,0,0,0,0,0,0,0,0,0,0,0,0],"split_type":[0,0,0,0,0,0,0,0,0,0,0,0,0,0,0,0,0,0,0,0,0,0,0,0,0,0,0,0,0,0,0,0,0,0,0,0,0,0,0,0,0,0,0,0,0,0,0,0,0,0,0,0,0,0,0,0,0,0,0,0,0],"sum_hessian":[1.27014E5,1.19737E5,7.277E3,1.141E4,1.08327E5,7.122E3,1.55E2,8.36E2,1.0574E4,2.0139E4,8.8188E4,1.44E2,6.978E3,9.1E1,6.4E1,2.33E2,6.03E2,1.4E1,1.056E4,1.7644E4,2.495E3,6.7976E4,2.0212E4,1.25E2,1.9E1,3E0,6.975E3,4.3E1,4.8E1,1.4E1,5E1,4.9E1,1.84E2,9.2E1,5.11E2,1E0,1.3E1,9.19E2,9.641E3,1.6701E4,9.43E2,1.029E3,1.466E3,2.8735E4,3.9241E4,1.9448E4,7.64E2,2.1E1,1.04E2,5E0,1.4E1,5.578E3,1.397E3,1.9E1,2.4E1,4.2E1,6E0,1.2E1,2E0,2.9E1,2.1E1],"tree_param":{"num_deleted":"0","num_feature":"7","num_nodes":"61","size_leaf_vector":"1"}},{"base_weights":[5.4178583E-3,-1.1008676E0,1.820608E1,8.672558E-1,-1.3081747E0,1.8625578E1,-1.065068E0,2.916164E1,-1.3722966E0,-1.9372216E0,-9.7911495E-1,3.0196135E1,1.8382511E1,-6.8871E-1,-5.523971E0,3.3712032E1,1.640397E1,4.4272858E1,-1.4369973E0,-3.1205113E0,-1.8024002E0,-4.1967916E-1,-1.6821951E0,2.8621565E1,6.855981E1,6.8826823E0,1.8350952E1,-3.3043942E0,1.1148618E-1,-8.503467E-1,-4.0777254E-1,1.6770104E0,3.6769063E0,7.5522037E0,1.4972805E0,1.2851822E0,4.559923E0,-1.8453969E-1,1.2813808E-1,-4.0650582E-1,-1.6362113E-1,-1.10442616E-1,-2.1565509E-1,4.3300185E-3,-1.9642155E-1,6.027391E-2,-1.8626855E-1,5.1612363E0,2.627917E0,1.5024651E0,7.818743E0,1.8158041E0,2.541263E0,-1.00208536E-1,-5.5477566E-1,3.9416865E-1,-6.154095E-2],"categories":[],"categories_nodes":[],"categories_segments":[],"categories_sizes":[],"default_left":[0,0,0,0,0,0,0,0,0,0,0,0,0,0,0,0,0,0,0,0,0,0,0,0,0,0,0,0,0,0,0,0,0,0,0,0,0,0,0,0,0,0,0,0,0,0,0,0,0,0,0,0,0,0,0,0,0],"id":19,"left_children":[1,3,5,7,9,11,13,15,17,19,21,23,25,27,29,31,33,35,37,39,41,43,45,47,49,-1,51,53,55,-1,-1,-1,-1,-1,-1,-1,-1,-1,-1,-1,-1,-1,-1,-1,-1,-1,-1,-1,-1,-1,-1,-1,-1,-1,-1,-1,-1],"loss_changes":[2.5574835E6,4.885492E4,5.885675E4,7.2311806E5,2.242136E4,1.947775E4,2.5798602E2,4.8036875E4,3.1294525E4,5.929625E3,2.7974758E4,6.796625E3,9.8475E3,3.0386218E2,1.703418E1,3.128725E4,1.7652164E4,3.910742E1,1.1727021E4,5.3265234E3,8.253945E3,2.832474E4,1.2998609E4,6.2370156E3,1.4023438E3,0E0,9.04175E3,1.700477E2,3.1425122E2,0E0,0E0,0E0,0E0,0E0,0E0,0E0,0E0,0E0,0E0,0E0,0E0,0E0,0E0,0E0,0E0,0E0,0E0,0E0,0E0,0E0,0E0,0E0,0E0,0E0,0E0,0E0,0E0],"parents":[2147483647,0,0,1,1,2,2,3,3,4,4,5,5,6,6,7,7,8,8,9,9,10,10,11,11,12,12,13,13,14,14,15,15,16,16,17,17,18,18,19,19,20,20,21,21,22,22,23,23,24,24,26,26,27,27,28,28],"right_children":[2,4,6,8,10,12,14,16,18,20,22,24,26,28,30,32,34,36,38,40,42,44,46,48,50,-1,52,54,56,-1,-1,-1,-1,-1,-1,-1,-1,-1,-1,-1,-1,-1,-1,-1,-1,-1,-1,-1,-1,-1,-1,-1,-1,-1,-1,-1,-1],"split_conditions":[1.5578824E2,3E0,5E0,9E0,1.4972902E1,5E0,1.5874243E2,7E0,1E0,1.1619167E1,3.706931E1,5E0,4E0,1.5114238E2,2E0,2E0,1.1619167E1,1.1619167E1,1.2E1,4E0,4E0,5E0,2E0,2E0,4E0,6.8826823E0,1.624E2,4E0,1.5583891E2,-8.503467E-1,-4.0777254E-1,1.6770104E0,3.6769063E0,7.5522037E0,1.4972805E0,1.2851822E0,4.559923E0,-1.8453969E-1,1.2813808E-1,-4.0650582E-1,-1.6362113E-1,-1.10442616E-1,-2.1565509E-1,4.3300185E-3,-1.9642155E-1,6.027391E-2,-1.8626855E-1,5.1612363E0,2.627917E0,1.5024651E0,7.818743E0,1.8158041E0,2.541263E0,-1.00208536E-1,-5.5477566E-1,3.9416865E-1,-6.154095E-2],"split_indices":[3,1,1,0,5,0,4,0,1,5,5,2,1,4,0,1,5,5,0,0,1,1,0,0,0,0,4,0,4,0,0,0,0,0,0,0,0,0,0,0,0,0,0,0,0,0,0,0,0,0,0,0,0,0,0,0,0],"split_type":[0,0,0,0,0,0,0,0,0,0,0,0,0,0,0,0,0,0,0,0,0,0,0,0,0,0,0,0,0,0,0,0,0,0,0,0,0,0,0,0,0,0,0,0,0,0,0,0,0,0,0,0,0,0,0,0,0],"sum_hessian":[1.27014E5,1.19737E5,7.277E3,1.141E4,1.08327E5,7.122E3,1.55E2,8.36E2,1.0574E4,3.7203E4,7.1124E4,1.44E2,6.978E3,1.44E2,1.1E1,6.15E2,2.21E2,1.4E1,1.056E4,3.803E3,3.34E4,3.9609E4,3.1515E4,1.4E2,4E0,3E0,6.975E3,3.3E1,1.11E2,2E0,9E0,9.5E1,5.2E2,4E0,2.17E2,1E0,1.3E1,9.181E3,1.379E3,2.323E3,1.48E3,1.1244E4,2.2156E4,3.0475E4,9.134E3,2.307E3,2.9208E4,1.1E1,1.29E2,1E0,3E0,6.793E3,1.82E2,1.7E1,1.6E1,1.7E1,9.4E1],"tree_param":{"num_deleted":"0","num_feature":"7","num_nodes":"57","size_leaf_vector":"1"}},{"base_weights":[5.2359523E-3,-9.9062234E-1,1.6389143E1,7.8229946E-1,-1.1773683E0,1.6766994E1,-9.686928E-1,2.626268E1,-1.2345195E0,-2.086268E0,-9.6978664E-1,3.311404E1,1.6623438E1,3.4827273E-2,-2.3741567E0,3.760196E1,2.1826166E1,4.0235233E0,-1.2933029E0,-1.2846571E0,-2.271946E0,-1.6347114E0,-6.2025446E-1,4.6881237E1,2.9147633E1,1.6384823E1,2.4899845E1,2.6326609E0,-1.2646513E0,-5.7475543E0,-1.3354288E0,4.9357266E0,3.4221597E0,3.2254228E-1,2.516219E0,1.9954331E-1,-1.6069666E-1,-2.450042E-1,-6.1784517E-2,-1.6205285E-1,-2.635076E-1,-1.4977993E-1,-3.2305405E-1,-2.7888922E-2,-1.8222868E-1,1.3034078E0,5.2347264E0,4.3082614E0,2.5037937E0,1.6116604E0,2.1378922E0,1.2017268E0,3.0911765E0,6.429409E-1,-1.1303247E0,-3.0693159E-1,9.703852E-1,-4.0207273E-1,-8.3970636E-1,-3.3990493E-1,1.5393002E-1],"categories":[],"categories_nodes":[],"categories_segments":[],"categories_sizes":[],"default_left":[0,0,0,0,0,0,0,0,0,0,0,0,0,0,0,0,0,0,0,0,0,0,0,0,0,0,0,0,0,0,0,0,0,0,0,0,0,0,0,0,0,0,0,0,0,0,0,0,0,0,0,0,0,0,0,0,0,0,0,0,0],"id":20,"left_children":[1,3,5,7,9,11,13,15,17,19,21,23,25,27,29,31,33,-1,35,37,39,41,43,45,47,49,51,53,55,57,59,-1,-1,-1,-1,-1,-1,-1,-1,-1,-1,-1,-1,-1,-1,-1,-1,-1,-1,-1,-1,-1,-1,-1,-1,-1,-1,-1,-1,-1,-1],"loss_changes":[2.0723991E6,3.9644484E4,4.775025E4,5.864359E5,2.0436328E4,1.616525E4,2.2010683E2,4.1286125E4,2.5831074E4,2.9947422E3,2.0495227E4,1.9645E3,1.35405E4,3.1390567E2,2.2008731E2,7.6094062E3,3.739853E4,0E0,1.0897475E4,2.943667E3,3.8635469E3,6.6339297E3,2.3718736E4,1.5378164E3,1.7847305E3,8.85525E3,1.4808539E4,1.7129181E3,1.2570411E3,3.4866394E1,3.07782E2,0E0,0E0,0E0,0E0,0E0,0E0,0E0,0E0,0E0,0E0,0E0,0E0,0E0,0E0,0E0,0E0,0E0,0E0,0E0,0E0,0E0,0E0,0E0,0E0,0E0,0E0,0E0,0E0,0E0,0E0],"parents":[2147483647,0,0,1,1,2,2,3,3,4,4,5,5,6,6,7,7,8,8,9,9,10,10,11,11,12,12,13,13,14,14,15,15,16,16,18,18,19,19,20,20,21,21,22,22,23,23,24,24,25,25,26,26,27,27,28,28,29,29,30,30],"right_children":[2,4,6,8,10,12,14,16,18,20,22,24,26,28,30,32,34,-1,36,38,40,42,44,46,48,50,52,54,56,58,60,-1,-1,-1,-1,-1,-1,-1,-1,-1,-1,-1,-1,-1,-1,-1,-1,-1,-1,-1,-1,-1,-1,-1,-1,-1,-1,-1,-1,-1,-1],"split_conditions":[1.5578824E2,3E0,5E0,9E0,1E0,4E0,3E0,4E0,1E0,3E0,1.4972902E1,2E0,1.624E2,3E0,1.5583891E2,2E0,2E0,4.0235233E0,1E1,2E0,4E0,1.1E1,5E0,2E0,1E0,1.2E1,2E0,1.5639394E2,1.5639394E2,1.5114238E2,4E0,4.9357266E0,3.4221597E0,3.2254228E-1,2.516219E0,1.9954331E-1,-1.6069666E-1,-2.450042E-1,-6.1784517E-2,-1.6205285E-1,-2.635076E-1,-1.4977993E-1,-3.2305405E-1,-2.7888922E-2,-1.8222868E-1,1.3034078E0,5.2347264E0,4.3082614E0,2.5037937E0,1.6116604E0,2.1378922E0,1.2017268E0,3.0911765E0,6.429409E-1,-1.1303247E0,-3.0693159E-1,9.703852E-1,-4.0207273E-1,-8.3970636E-1,-3.3990493E-1,1.5393002E-1],"split_indices":[3,1,1,0,2,0,2,0,1,0,5,0,4,0,4,0,1,0,0,0,1,0,1,2,2,0,2,4,4,4,2,0,0,0,0,0,0,0,0,0,0,0,0,0,0,0,0,0,0,0,0,0,0,0,0,0,0,0,0,0,0],"split_type":[0,0,0,0,0,0,0,0,0,0,0,0,0,0,0,0,0,0,0,0,0,0,0,0,0,0,0,0,0,0,0,0,0,0,0,0,0,0,0,0,0,0,0,0,0,0,0,0,0,0,0,0,0,0,0,0,0,0,0,0,0],"sum_hessian":[1.27014E5,1.19737E5,7.277E3,1.141E4,1.08327E5,7.122E3,1.55E2,8.36E2,1.0574E4,2.0139E4,8.8188E4,6E1,7.062E3,9.1E1,6.4E1,2.33E2,6.03E2,1.4E1,1.056E4,3.789E3,1.635E4,3.0384E4,5.7804E4,1.1E1,4.9E1,6.867E3,1.95E2,3E1,6.1E1,1.4E1,5E1,4.9E1,1.84E2,9.2E1,5.11E2,9.19E2,9.641E3,1.378E3,2.411E3,5.854E3,1.0496E4,2.7985E4,2.399E3,4.502E4,1.2784E4,2E0,9E0,9E0,4E1,6.521E3,3.46E2,6.3E1,1.32E2,2.4E1,6E0,5.3E1,8E0,1E1,4E0,2.9E1,2.1E1],"tree_param":{"num_deleted":"0","num_feature":"7","num_nodes":"61","size_leaf_vector":"1"}},{"base_weights":[4.9800337E-3,-8.9144415E-1,1.4752993E1,7.0540696E-1,-1.0596442E0,1.5093294E1,-8.798469E-1,2.3649788E1,-1.1106831E0,-1.5679489E0,-7.415412E-1,1.9019123E1,1.4554037E1,-5.3692E-1,-4.9502263E0,2.7559494E1,1.2694706E1,3.647994E1,-1.1639687E0,-6.411888E-1,-1.8006834E0,-5.2663594E-1,-2.3986506E0,3.0021486E1,1.8153172E1,1.3848324E1,1.6995258E1,-2.862894E0,1.7397322E-1,-7.611104E-1,-3.6569405E0,1.3198041E0,3.0152853E0,6.794255E-1,2.6243598E0,1.0197464E0,3.7628868E0,-2.1380328E-1,-1.428363E-2,1.6352635E-2,-1.7372732E-1,-2.0791112E-1,-8.022864E-2,-1.4716669E-2,-1.6168934E-1,-7.90337E-2,-3.692933E-1,4.273795E0,2.6369107E0,1.743735E0,3.2800477E0,1.2411746E0,1.4828441E0,1.152448E0,1.8571475E0,-9.658166E-2,-4.703159E-1,3.819378E-1,-5.1856637E-2,-9.854436E-2,-4.2016345E-1],"categories":[],"categories_nodes":[],"categories_segments":[],"categories_sizes":[],"default_left":[0,0,0,0,0,0,0,0,0,0,0,0,0,0,0,0,0,0,0,0,0,0,0,0,0,0,0,0,0,0,0,0,0,0,0,0,0,0,0,0,0,0,0,0,0,0,0,0,0,0,0,0,0,0,0,0,0,0,0,0,0],"id":21,"left_children":[1,3,5,7,9,11,13,15,17,19,21,23,25,27,29,31,33,35,37,39,41,43,45,47,49,51,53,55,57,-1,59,-1,-1,-1,-1,-1,-1,-1,-1,-1,-1,-1,-1,-1,-1,-1,-1,-1,-1,-1,-1,-1,-1,-1,-1,-1,-1,-1,-1,-1,-1],"loss_changes":[1.6792118E6,3.2161234E4,3.87315E4,4.7551197E5,1.7514742E4,1.4802625E4,2.1509361E2,3.549975E4,2.1224574E4,8.99243E3,2.3727828E4,7.6200938E3,1.05615E4,2.4025833E2,1.3461945E1,2.2544594E4,1.756939E4,6.923242E1,1.0504175E4,7.383805E3,9.262609E3,2.440257E4,1.5919328E4,1.706207E3,7.7844375E3,6.66875E3,1.18669375E4,1.1415585E2,2.8473434E2,0E0,1.04109955E1,0E0,0E0,0E0,0E0,0E0,0E0,0E0,0E0,0E0,0E0,0E0,0E0,0E0,0E0,0E0,0E0,0E0,0E0,0E0,0E0,0E0,0E0,0E0,0E0,0E0,0E0,0E0,0E0,0E0,0E0],"parents":[2147483647,0,0,1,1,2,2,3,3,4,4,5,5,6,6,7,7,8,8,9,9,10,10,11,11,12,12,13,13,14,14,15,15,16,16,17,17,18,18,19,19,20,20,21,21,22,22,23,23,24,24,25,25,26,26,27,27,28,28,30,30],"right_children":[2,4,6,8,10,12,14,16,18,20,22,24,26,28,30,32,34,36,38,40,42,44,46,48,50,52,54,56,58,-1,60,-1,-1,-1,-1,-1,-1,-1,-1,-1,-1,-1,-1,-1,-1,-1,-1,-1,-1,-1,-1,-1,-1,-1,-1,-1,-1,-1,-1,-1,-1],"split_conditions":[1.5578824E2,3E0,5E0,9E0,2E0,6E0,1.5874243E2,7E0,1E0,3E0,1E1,4E0,1.1E1,1.5114238E2,2E0,2E0,3.706931E1,1.1619167E1,2E0,5E0,9E0,5E0,4E0,2E0,1.624E2,2E0,1E0,4E0,1.5583891E2,-7.611104E-1,3E0,1.3198041E0,3.0152853E0,6.794255E-1,2.6243598E0,1.0197464E0,3.7628868E0,-2.1380328E-1,-1.428363E-2,1.6352635E-2,-1.7372732E-1,-2.0791112E-1,-8.022864E-2,-1.4716669E-2,-1.6168934E-1,-7.90337E-2,-3.692933E-1,4.273795E0,2.6369107E0,1.743735E0,3.2800477E0,1.2411746E0,1.4828441E0,1.152448E0,1.8571475E0,-9.658166E-2,-4.703159E-1,3.819378E-1,-5.1856637E-2,-9.854436E-2,-4.2016345E-1],"split_indices":[3,1,1,0,2,0,4,0,1,0,0,0,0,4,0,1,5,5,1,1,0,1,1,0,4,2,2,0,4,0,0,0,0,0,0,0,0,0,0,0,0,0,0,0,0,0,0,0,0,0,0,0,0,0,0,0,0,0,0,0,0],"split_type":[0,0,0,0,0,0,0,0,0,0,0,0,0,0,0,0,0,0,0,0,0,0,0,0,0,0,0,0,0,0,0,0,0,0,0,0,0,0,0,0,0,0,0,0,0,0,0,0,0,0,0,0,0,0,0,0,0,0,0,0,0],"sum_hessian":[1.27014E5,1.19737E5,7.277E3,1.141E4,1.08327E5,7.122E3,1.55E2,8.36E2,1.0574E4,4.1696E4,6.6631E4,8.56E2,6.266E3,1.44E2,1.1E1,6.15E2,2.21E2,1.4E1,1.056E4,8.37E3,3.3326E4,5.8983E4,7.648E3,6E1,7.96E2,4.866E3,1.4E3,3.3E1,1.11E2,2E0,9E0,9.5E1,5.2E2,1.55E2,6.6E1,1E0,1.3E1,5.404E3,5.156E3,4.827E3,3.543E3,2.6058E4,7.268E3,4.3755E4,1.5228E4,3.411E3,4.237E3,1.1E1,4.9E1,7.61E2,3.5E1,1.979E3,2.887E3,3.15E2,1.085E3,1.7E1,1.6E1,1.7E1,9.4E1,2E0,7E0],"tree_param":{"num_deleted":"0","num_feature":"7","num_nodes":"61","size_leaf_vector":"1"}},{"base_weights":[4.696756E-3,-8.022067E-1,1.3279909E1,6.359344E-1,-9.5368946E-1,1.3586442E1,-8.01584E-1,2.1293932E1,-9.9918425E-1,-1.462988E0,-6.872726E-1,1.7131142E1,1.3099544E1,-4.8486096E-1,-4.5618553E0,2.8717665E1,1.6106792E1,3.3150795E1,-1.0475936E0,-2.5249825E0,-1.3419949E0,-1.831449E-1,-1.3208497E0,2.7132622E1,1.6344164E1,1.2535961E1,1.5800744E1,-2.5932777E0,1.5952325E-1,-7.1036977E-1,-3.343117E0,3.6711023E0,2.4524915E0,-1.716849E-1,1.9243767E0,9.687592E-1,3.413477E0,-1.404741E-1,1.3294898E-1,-4.3020162E-1,-1.7349808E-1,-7.5546905E-2,-1.6396047E-1,5.0900597E-2,-1.15019314E-1,7.244631E-2,-1.4824183E-1,3.8820293E0,2.3784928E0,1.5695909E0,2.9611542E0,6.080009E0,1.2496325E0,1.5050921E0,2.8495967E0,-8.745998E-2,-4.2605087E-1,9.22118E-2,-2.831479E-1,-9.1974735E-2,-3.833991E-1],"categories":[],"categories_nodes":[],"categories_segments":[],"categories_sizes":[],"default_left":[0,0,0,0,0,0,0,0,0,0,0,0,0,0,0,0,0,0,0,0,0,0,0,0,0,0,0,0,0,0,0,0,0,0,0,0,0,0,0,0,0,0,0,0,0,0,0,0,0,0,0,0,0,0,0,0,0,0,0,0,0],"id":22,"left_children":[1,3,5,7,9,11,13,15,17,19,21,23,25,27,29,31,33,35,37,39,41,43,45,47,49,51,53,55,57,-1,59,-1,-1,-1,-1,-1,-1,-1,-1,-1,-1,-1,-1,-1,-1,-1,-1,-1,-1,-1,-1,-1,-1,-1,-1,-1,-1,-1,-1,-1,-1],"loss_changes":[1.3605719E6,2.6085953E4,3.1425875E4,3.8546522E5,1.4697555E4,1.2069125E4,1.8357858E2,3.1768594E4,1.7517066E4,4.7771094E3,2.2717352E4,6.301953E3,9.342625E3,1.9741512E2,1.3425583E1,1.0595E4,2.7709617E4,1.5623047E1,8.967829E3,5.3328184E3,5.8290977E3,2.651327E4,1.0415805E4,1.4633945E3,6.389922E3,9.1686875E3,9.832781E3,9.3698456E1,2.5807425E2,0E0,8.369385E0,0E0,0E0,0E0,0E0,0E0,0E0,0E0,0E0,0E0,0E0,0E0,0E0,0E0,0E0,0E0,0E0,0E0,0E0,0E0,0E0,0E0,0E0,0E0,0E0,0E0,0E0,0E0,0E0,0E0,0E0],"parents":[2147483647,0,0,1,1,2,2,3,3,4,4,5,5,6,6,7,7,8,8,9,9,10,10,11,11,12,12,13,13,14,14,15,15,16,16,17,17,18,18,19,19,20,20,21,21,22,22,23,23,24,24,25,25,26,26,27,27,28,28,30,30],"right_children":[2,4,6,8,10,12,14,16,18,20,22,24,26,28,30,32,34,36,38,40,42,44,46,48,50,52,54,56,58,-1,60,-1,-1,-1,-1,-1,-1,-1,-1,-1,-1,-1,-1,-1,-1,-1,-1,-1,-1,-1,-1,-1,-1,-1,-1,-1,-1,-1,-1,-1,-1],"split_conditions":[1.5578824E2,3E0,5E0,9E0,1.4972902E1,6E0,1.5874243E2,5E0,1E0,1.1619167E1,3.706931E1,4E0,1.5639394E2,1.5114238E2,2E0,3E0,2E0,1.1619167E1,1.2E1,4E0,4E0,4E0,2E0,2E0,1.624E2,4E0,1.2E1,4E0,6E0,-7.1036977E-1,3E0,3.6711023E0,2.4524915E0,-1.716849E-1,1.9243767E0,9.687592E-1,3.413477E0,-1.404741E-1,1.3294898E-1,-4.3020162E-1,-1.7349808E-1,-7.5546905E-2,-1.6396047E-1,5.0900597E-2,-1.15019314E-1,7.244631E-2,-1.4824183E-1,3.8820293E0,2.3784928E0,1.5695909E0,2.9611542E0,6.080009E0,1.2496325E0,1.5050921E0,2.8495967E0,-8.745998E-2,-4.2605087E-1,9.22118E-2,-2.831479E-1,-9.1974735E-2,-3.833991E-1],"split_indices":[3,1,1,0,5,0,4,0,1,5,5,0,4,4,0,0,1,5,0,1,1,0,0,0,4,1,0,0,0,0,0,0,0,0,0,0,0,0,0,0,0,0,0,0,0,0,0,0,0,0,0,0,0,0,0,0,0,0,0,0,0],"split_type":[0,0,0,0,0,0,0,0,0,0,0,0,0,0,0,0,0,0,0,0,0,0,0,0,0,0,0,0,0,0,0,0,0,0,0,0,0,0,0,0,0,0,0,0,0,0,0,0,0,0,0,0,0,0,0,0,0,0,0,0,0],"sum_hessian":[1.27014E5,1.19737E5,7.277E3,1.141E4,1.08327E5,7.122E3,1.55E2,8.36E2,1.0574E4,3.7203E4,7.1124E4,8.56E2,6.266E3,1.44E2,1.1E1,3.42E2,4.94E2,1.4E1,1.056E4,3.803E3,3.34E4,3.9609E4,3.1515E4,6E1,7.96E2,5.189E3,1.077E3,3.3E1,1.11E2,2E0,9E0,1.15E2,2.27E2,7.4E1,4.2E2,1E0,1.3E1,9.181E3,1.379E3,1.169E3,2.634E3,1.1244E4,2.2156E4,2.3086E4,1.6523E4,2.307E3,2.9208E4,1.1E1,4.9E1,7.61E2,3.5E1,3E0,5.186E3,1.019E3,5.8E1,1.7E1,1.6E1,8.9E1,2.2E1,2E0,7E0],"tree_param":{"num_deleted":"0","num_feature":"7","num_nodes":"61","size_leaf_vector":"1"}},{"base_weights":[4.477673E-3,-7.21892E-1,1.1954745E1,5.7341486E-1,-8.583297E-1,1.2230951E1,-7.335426E-1,2.248431E1,-6.7683387E-1,-1.6237012E0,-6.835297E-1,2.044473E1,1.2058544E1,1.624891E-1,-1.9904869E0,1.0089785E1,2.4724983E1,9.902076E0,-8.9885193E-1,-1.4761842E0,-2.6658943E0,-4.6810332E-1,-1.4079819E0,1.895991E1,5.822774E1,1.0081172E1,1.2624514E1,2.386974E0,-9.523742E-1,-3.7006795E0,-3.2234997E-1,4.2482233E0,4.5044348E-1,2.521307E0,-9.7252005E-1,6.7100153E0,8.544771E-1,3.0127861E0,-9.428347E-2,-1.7470315E-1,3.3174238E-1,-1.4147621E-1,-3.5425135E-1,1.9341151E-1,-6.1976325E-2,-1.3722898E-1,-1.7931376E-1,1.6065959E0,3.310862E0,1.051381E0,6.752777E0,8.269734E-1,1.0528121E0,1.2358619E0,1.7556168E0,5.784221E-1,-1.0087047E0,-2.5992435E-1,9.0346605E-1,-2.3443376E-1,-1.0556059E0,2.0024863E-1,-2.263141E-1],"categories":[],"categories_nodes":[],"categories_segments":[],"categories_sizes":[],"default_left":[0,0,0,0,0,0,0,0,0,0,0,0,0,0,0,0,0,0,0,0,0,0,0,0,0,0,0,0,0,0,0,0,0,0,0,0,0,0,0,0,0,0,0,0,0,0,0,0,0,0,0,0,0,0,0,0,0,0,0,0,0,0,0],"id":23,"left_children":[1,3,5,7,9,11,13,15,17,19,21,23,25,27,29,31,33,35,37,39,41,43,45,47,49,51,53,55,57,59,61,-1,-1,-1,-1,-1,-1,-1,-1,-1,-1,-1,-1,-1,-1,-1,-1,-1,-1,-1,-1,-1,-1,-1,-1,-1,-1,-1,-1,-1,-1,-1,-1],"loss_changes":[1.1025385E6,2.116164E4,2.5515375E4,3.1260894E5,1.4491758E4,9.8405E3,1.7602026E2,1.6858125E4,2.5365562E4,3.092414E3,1.3762652E4,7.0306484E3,7.6831875E3,2.30433E2,1.8424142E2,1.7177262E4,9.005625E3,1.6661664E4,1.4459477E4,2.2914922E4,2.7325176E3,2.4766602E4,2.7540234E2,5.241422E3,1.5087324E3,1.1743281E3,6.892875E3,1.372043E3,1.0432184E3,2.7279672E2,1.5794063E2,0E0,0E0,0E0,0E0,0E0,0E0,0E0,0E0,0E0,0E0,0E0,0E0,0E0,0E0,0E0,0E0,0E0,0E0,0E0,0E0,0E0,0E0,0E0,0E0,0E0,0E0,0E0,0E0,0E0,0E0,0E0,0E0],"parents":[2147483647,0,0,1,1,2,2,3,3,4,4,5,5,6,6,7,7,8,8,9,9,10,10,11,11,12,12,13,13,14,14,15,15,16,16,17,17,18,18,19,19,20,20,21,21,22,22,23,23,24,24,25,25,26,26,27,27,28,28,29,29,30,30],"right_children":[2,4,6,8,10,12,14,16,18,20,22,24,26,28,30,32,34,36,38,40,42,44,46,48,50,52,54,56,58,60,62,-1,-1,-1,-1,-1,-1,-1,-1,-1,-1,-1,-1,-1,-1,-1,-1,-1,-1,-1,-1,-1,-1,-1,-1,-1,-1,-1,-1,-1,-1,-1,-1],"split_conditions":[1.5578824E2,3E0,5E0,7E0,1E0,5E0,3E0,2E0,9E0,1E1,5E0,5E0,1.5583891E2,3E0,4E0,2E0,5E0,1.1619167E1,1E0,9E0,4E0,2E0,5E0,1.5874243E2,4E0,1E0,1.2E1,1.5639394E2,1.5639394E2,1.5639394E2,5E0,4.2482233E0,4.5044348E-1,2.521307E0,-9.7252005E-1,6.7100153E0,8.544771E-1,3.0127861E0,-9.428347E-2,-1.7470315E-1,3.3174238E-1,-1.4147621E-1,-3.5425135E-1,1.9341151E-1,-6.1976325E-2,-1.3722898E-1,-1.7931376E-1,1.6065959E0,3.310862E0,1.051381E0,6.752777E0,8.269734E-1,1.0528121E0,1.2358619E0,1.7556168E0,5.784221E-1,-1.0087047E0,-2.5992435E-1,9.0346605E-1,-2.3443376E-1,-1.0556059E0,2.0024863E-1,-2.263141E-1],"split_indices":[3,1,1,0,2,0,2,1,0,0,1,2,4,0,0,0,2,5,1,0,1,0,2,4,0,2,0,4,4,4,0,0,0,0,0,0,0,0,0,0,0,0,0,0,0,0,0,0,0,0,0,0,0,0,0,0,0,0,0,0,0,0,0],"split_type":[0,0,0,0,0,0,0,0,0,0,0,0,0,0,0,0,0,0,0,0,0,0,0,0,0,0,0,0,0,0,0,0,0,0,0,0,0,0,0,0,0,0,0,0,0,0,0,0,0,0,0,0,0,0,0,0,0,0,0,0,0,0,0],"sum_hessian":[1.27014E5,1.19737E5,7.277E3,1.141E4,1.08327E5,7.122E3,1.55E2,6.15E2,1.0795E4,2.0139E4,8.8188E4,1.44E2,6.978E3,9.1E1,6.4E1,9.5E1,5.2E2,2.21E2,1.0574E4,1.7644E4,2.495E3,6.7976E4,2.0212E4,1.4E2,4E0,1.557E3,5.421E3,3E1,6.1E1,3.1E1,3.3E1,1.3E1,8.2E1,5.13E2,7E0,4E0,2.17E2,1.4E1,1.056E4,1.6701E4,9.43E2,1.029E3,1.466E3,4.036E3,6.394E4,1.8502E4,1.71E3,1.18E2,2.2E1,1E0,3E0,3.12E2,1.245E3,5.147E3,2.74E2,2.4E1,6E0,5.3E1,8E0,2.7E1,4E0,1.5E1,1.8E1],"tree_param":{"num_deleted":"0","num_feature":"7","num_nodes":"63","size_leaf_vector":"1"}},{"base_weights":[4.287636E-3,-6.495674E-1,1.0761541E1,5.1753956E-1,-7.725015E-1,1.1010331E1,-6.67258E-1,1.727306E1,-8.086911E-1,-1.2006657E0,-5.0455314E-1,1.4120037E1,1.0583328E1,1.4855783E-1,-1.8116858E0,3.0574833E1,1.511201E1,2.7315926E1,-8.4856045E-1,-4.29252E-1,-1.3943917E0,-3.152169E-1,-1.9645225E0,2.275526E1,1.3441406E1,5.509907E0,1.0553212E1,2.1343958E0,-8.467573E-1,-4.8765473E0,-8.747327E-1,1.0524435E0,3.5690975E0,7.790026E-2,1.7714604E0,2.8922575E0,1.1248474E0,2.1635054E-1,-1.1358714E-1,2.5459498E-2,-1.3607374E-1,-1.6418259E-1,-5.071605E-2,5.9616596E-2,-7.635812E-2,-5.297953E-2,-3.119153E-1,3.3647041E0,1.9686129E0,1.2892517E0,2.46862E0,1.0050559E0,1.2962031E0,5.228935E-1,-9.2224425E-1,-2.344133E-1,8.2315797E-1,-3.0845544E-1,-7.8436226E-1,-2.7183795E-1,1.6790918E-1],"categories":[],"categories_nodes":[],"categories_segments":[],"categories_sizes":[],"default_left":[0,0,0,0,0,0,0,0,0,0,0,0,0,0,0,0,0,0,0,0,0,0,0,0,0,0,0,0,0,0,0,0,0,0,0,0,0,0,0,0,0,0,0,0,0,0,0,0,0,0,0,0,0,0,0,0,0,0,0,0,0],"id":24,"left_children":[1,3,5,7,9,11,13,15,17,19,21,23,25,27,29,31,33,35,37,39,41,43,45,47,49,-1,51,53,55,57,59,-1,-1,-1,-1,-1,-1,-1,-1,-1,-1,-1,-1,-1,-1,-1,-1,-1,-1,-1,-1,-1,-1,-1,-1,-1,-1,-1,-1,-1,-1],"loss_changes":[8.9339044E5,1.7180082E4,2.0701375E4,2.5358562E5,1.2427418E4,9.3088125E3,1.4591733E2,2.3598203E4,1.1881043E4,6.2307188E3,1.841814E4,4.7162656E3,7.8203125E3,1.8364851E2,1.823904E2,1.1523734E4,2.6918969E4,6.1887695E1,9.141942E3,5.332618E3,7.3154844E3,2.4103176E4,1.2669529E4,1.376748E3,4.6009375E3,0E0,7.4541875E3,1.1376931E3,8.621041E2,5.5560577E1,2.4469026E2,0E0,0E0,0E0,0E0,0E0,0E0,0E0,0E0,0E0,0E0,0E0,0E0,0E0,0E0,0E0,0E0,0E0,0E0,0E0,0E0,0E0,0E0,0E0,0E0,0E0,0E0,0E0,0E0,0E0,0E0],"parents":[2147483647,0,0,1,1,2,2,3,3,4,4,5,5,6,6,7,7,8,8,9,9,10,10,11,11,12,12,13,13,14,14,15,15,16,16,17,17,18,18,19,19,20,20,21,21,22,22,23,23,24,24,26,26,27,27,28,28,29,29,30,30],"right_children":[2,4,6,8,10,12,14,16,18,20,22,24,26,28,30,32,34,36,38,40,42,44,46,48,50,-1,52,54,56,58,60,-1,-1,-1,-1,-1,-1,-1,-1,-1,-1,-1,-1,-1,-1,-1,-1,-1,-1,-1,-1,-1,-1,-1,-1,-1,-1,-1,-1,-1,-1],"split_conditions":[1.5578824E2,3E0,5E0,9E0,2E0,6E0,3E0,3E0,1E0,3E0,1E1,4E0,4E0,3E0,1.5583891E2,1.4972902E1,2E0,3.706931E1,1E1,5E0,9E0,3E0,4E0,2E0,1.624E2,5.509907E0,1.5639394E2,1.5639394E2,1.5639394E2,1.5114238E2,4E0,1.0524435E0,3.5690975E0,7.790026E-2,1.7714604E0,2.8922575E0,1.1248474E0,2.1635054E-1,-1.1358714E-1,2.5459498E-2,-1.3607374E-1,-1.6418259E-1,-5.071605E-2,5.9616596E-2,-7.635812E-2,-5.297953E-2,-3.119153E-1,3.3647041E0,1.9686129E0,1.2892517E0,2.46862E0,1.0050559E0,1.2962031E0,5.228935E-1,-9.2224425E-1,-2.344133E-1,8.2315797E-1,-3.0845544E-1,-7.8436226E-1,-2.7183795E-1,1.6790918E-1],"split_indices":[3,1,1,0,2,0,2,0,1,0,0,0,1,0,4,5,1,5,0,1,0,2,1,0,4,0,4,4,4,4,2,0,0,0,0,0,0,0,0,0,0,0,0,0,0,0,0,0,0,0,0,0,0,0,0,0,0,0,0,0,0],"split_type":[0,0,0,0,0,0,0,0,0,0,0,0,0,0,0,0,0,0,0,0,0,0,0,0,0,0,0,0,0,0,0,0,0,0,0,0,0,0,0,0,0,0,0,0,0,0,0,0,0,0,0,0,0,0,0,0,0,0,0,0,0],"sum_hessian":[1.27014E5,1.19737E5,7.277E3,1.141E4,1.08327E5,7.122E3,1.55E2,8.36E2,1.0574E4,4.1696E4,6.6631E4,8.56E2,6.266E3,9.1E1,6.4E1,1.15E2,7.21E2,1.4E1,1.056E4,8.37E3,3.3326E4,5.8983E4,7.648E3,6E1,7.96E2,3E0,6.263E3,3E1,6.1E1,1.4E1,5E1,2.4E1,9.1E1,1.11E2,6.1E2,1.2E1,2E0,9.19E2,9.641E3,4.827E3,3.543E3,2.6058E4,7.268E3,1.9449E4,3.9534E4,3.411E3,4.237E3,1.1E1,4.9E1,7.61E2,3.5E1,5.186E3,1.077E3,2.4E1,6E0,5.3E1,8E0,1E1,4E0,2.9E1,2.1E1],"tree_param":{"num_deleted":"0","num_feature":"7","num_nodes":"61","size_leaf_vector":"1"}},{"base_weights":[4.0621273E-3,-5.845281E-1,9.687575E0,-1.0925807E0,-3.1896177E-1,9.911675E0,-6.069898E-1,-1.1314696E0,2.257479E0,2.0640059E-1,-9.7446555E-1,9.730514E0,1.6070543E1,-3.3541682E-1,-3.837914E0,-9.568711E-1,-1.8697835E0,-8.141974E-1,8.425583E0,5.869576E-1,-1.231615E0,7.960231E-1,-1.100063E0,1.4261752E1,9.474644E0,5.722611E0,2.1163794E1,-2.2476552E0,2.4807887E-1,-5.6905687E-1,-2.8983262E0,4.9949256E-1,-1.06076755E-1,2.3629107E0,-1.8925326E-1,3.192695E0,-1.2300134E-1,1.5531303E0,-3.970928E-1,2.0494942E-1,-4.2009886E-2,-1.6192125E-1,-1.1114255E-1,-4.049122E-1,2.571441E-1,-1.7224163E-1,-6.453552E-2,1.0410583E0,2.2134082E0,1.1789274E0,9.153587E-1,3.0670637E-1,2.2790413E0,3.0376759E0,1.4450171E0,-6.0736746E-1,-1.6814703E-1,3.83457E-1,-4.3407816E-2,4.2886816E-2,-3.7837332E-1],"categories":[],"categories_nodes":[],"categories_segments":[],"categories_sizes":[],"default_left":[0,0,0,0,0,0,0,0,0,0,0,0,0,0,0,0,0,0,0,0,0,0,0,0,0,0,0,0,0,0,0,0,0,0,0,0,0,0,0,0,0,0,0,0,0,0,0,0,0,0,0,0,0,0,0,0,0,0,0,0,0],"id":25,"left_children":[1,3,5,7,9,11,13,15,17,19,21,23,25,27,29,31,33,35,37,39,41,43,45,47,49,51,53,55,57,-1,59,-1,-1,-1,-1,-1,-1,-1,-1,-1,-1,-1,-1,-1,-1,-1,-1,-1,-1,-1,-1,-1,-1,-1,-1,-1,-1,-1,-1,-1,-1],"loss_changes":[7.2394294E5,1.6154898E4,1.67965E4,5.357465E3,2.7080633E4,7.791125E3,1.3559204E2,5.2360195E3,8.949568E3,2.3889143E4,7.780453E3,7.8903125E3,1.0525215E4,1.6234613E2,4.3956604E0,2.0326814E4,4.551875E3,4.341386E3,1.3891194E4,5.084094E4,4.2375586E2,1.9950213E4,9.24357E3,1.0926477E4,4.7633125E3,3.0121567E3,7.911125E3,6.3439255E1,2.7567813E2,0E0,3.1081932E1,0E0,0E0,0E0,0E0,0E0,0E0,0E0,0E0,0E0,0E0,0E0,0E0,0E0,0E0,0E0,0E0,0E0,0E0,0E0,0E0,0E0,0E0,0E0,0E0,0E0,0E0,0E0,0E0,0E0,0E0],"parents":[2147483647,0,0,1,1,2,2,3,3,4,4,5,5,6,6,7,7,8,8,9,9,10,10,11,11,12,12,13,13,14,14,15,15,16,16,17,17,18,18,19,19,20,20,21,21,22,22,23,23,24,24,25,25,26,26,27,27,28,28,30,30],"right_children":[2,4,6,8,10,12,14,16,18,20,22,24,26,28,30,32,34,36,38,40,42,44,46,48,50,52,54,56,58,-1,60,-1,-1,-1,-1,-1,-1,-1,-1,-1,-1,-1,-1,-1,-1,-1,-1,-1,-1,-1,-1,-1,-1,-1,-1,-1,-1,-1,-1,-1,-1],"split_conditions":[1.5578824E2,1.4972902E1,5E0,1.3323612E1,3.706931E1,1.624E2,1.5874243E2,1E1,9E0,5E0,2E0,1E0,2E0,1.5114238E2,2E0,3E0,1E0,3E0,4E0,4E0,1.5638766E1,4E0,4E0,3E0,6E0,1.1E1,8E0,2E0,1.5583891E2,-5.6905687E-1,3E0,4.9949256E-1,-1.06076755E-1,2.3629107E0,-1.8925326E-1,3.192695E0,-1.2300134E-1,1.5531303E0,-3.970928E-1,2.0494942E-1,-4.2009886E-2,-1.6192125E-1,-1.1114255E-1,-4.049122E-1,2.571441E-1,-1.7224163E-1,-6.453552E-2,1.0410583E0,2.2134082E0,1.1789274E0,9.153587E-1,3.0670637E-1,2.2790413E0,3.0376759E0,1.4450171E0,-6.0736746E-1,-1.6814703E-1,3.83457E-1,-4.3407816E-2,4.2886816E-2,-3.7837332E-1],"split_indices":[3,5,1,3,5,4,4,0,0,1,0,6,2,4,0,1,1,1,1,0,5,1,0,2,0,0,0,0,4,0,0,0,0,0,0,0,0,0,0,0,0,0,0,0,0,0,0,0,0,0,0,0,0,0,0,0,0,0,0,0,0],"split_type":[0,0,0,0,0,0,0,0,0,0,0,0,0,0,0,0,0,0,0,0,0,0,0,0,0,0,0,0,0,0,0,0,0,0,0,0,0,0,0,0,0,0,0,0,0,0,0,0,0,0,0,0,0,0,0,0,0,0,0,0,0],"sum_hessian":[1.27014E5,1.19737E5,7.277E3,4.1102E4,7.8635E4,7.122E3,1.55E2,4.0631E4,4.71E2,4.3651E4,3.4984E4,6.921E3,2.01E2,1.44E2,1.1E1,3.2862E4,7.769E3,3.15E2,1.56E2,3.4517E4,9.134E3,2.317E3,3.2667E4,3.67E2,6.554E3,6.7E1,1.34E2,3.3E1,1.11E2,2E0,9E0,5.63E2,3.2299E4,6E0,7.763E3,3E0,3.12E2,9.9E1,5.7E1,1.4075E4,2.0442E4,2.159E3,6.975E3,6.21E2,1.696E3,1.379E4,1.8877E4,2.48E2,1.19E2,7.94E2,5.76E3,5.9E1,8E0,5.5E1,7.9E1,3E0,3E1,1.7E1,9.4E1,2E0,7E0],"tree_param":{"num_deleted":"0","num_feature":"7","num_nodes":"61","size_leaf_vector":"1"}},{"base_weights":[3.79262E-3,-5.2602273E-1,8.720339E0,5.2148604E-1,-6.363598E-1,8.922251E0,-5.5488086E-1,1.8292372E1,-4.9253651E-1,-1.2814693E0,-4.890269E-1,4.963109E0,8.898128E0,1.7500515E-1,-1.5794137E0,2.7404179E1,1.6146141E1,2.8811378E0,-8.911353E-1,-1.1438732E0,-2.2536652E0,-9.745212E-1,-2.3382004E-1,1.9220655E1,8.807678E0,8.655527E-1,-2.5237067E0,-3.1858099E0,-2.1058068E-2,9.0345985E-1,3.2098043E0,1.8877645E-1,1.8496042E0,-5.245645E-1,1.1501476E0,-1.31909E-1,1.65262E-1,-1.3836798E-1,3.1001857E-1,-1.1366302E-1,-3.036414E-1,-8.839377E-2,-2.750626E-1,1.1035895E-1,-4.555526E-2,3.0356958E0,1.6709431E0,8.646478E-1,1.4408867E0,-1.9279756E-1,1.9358961E-1,2.4444163E-3,-3.0030128E-1,-1.9548188E-1,-9.4421977E-1,1.9958141E-1,-1.7183684E-1],"categories":[],"categories_nodes":[],"categories_segments":[],"categories_sizes":[],"default_left":[0,0,0,0,0,0,0,0,0,0,0,0,0,0,0,0,0,0,0,0,0,0,0,0,0,0,0,0,0,0,0,0,0,0,0,0,0,0,0,0,0,0,0,0,0,0,0,0,0,0,0,0,0,0,0,0,0],"id":26,"left_children":[1,3,5,7,9,11,13,15,17,19,21,-1,23,25,27,29,31,33,35,37,39,41,43,45,47,49,51,53,55,-1,-1,-1,-1,-1,-1,-1,-1,-1,-1,-1,-1,-1,-1,-1,-1,-1,-1,-1,-1,-1,-1,-1,-1,-1,-1,-1,-1],"loss_changes":[5.8658025E5,1.3839539E4,1.3635E4,2.0563616E5,1.0295496E4,6.553375E3,1.1693199E2,1.1604047E4,1.4520408E4,2.6915586E3,1.0926521E4,0E0,6.4784375E3,1.7363457E2,1.6264978E2,9.712023E3,1.6751453E4,7.999379E4,1.0513814E4,1.7962537E4,2.1789463E3,4.88609E3,1.7142418E4,1.1986641E3,6.2499375E3,2.2499489E2,2.3278954E1,2.279921E2,1.1982031E2,0E0,0E0,0E0,0E0,0E0,0E0,0E0,0E0,0E0,0E0,0E0,0E0,0E0,0E0,0E0,0E0,0E0,0E0,0E0,0E0,0E0,0E0,0E0,0E0,0E0,0E0,0E0,0E0],"parents":[2147483647,0,0,1,1,2,2,3,3,4,4,5,5,6,6,7,7,8,8,9,9,10,10,12,12,13,13,14,14,15,15,16,16,17,17,18,18,19,19,20,20,21,21,22,22,23,23,24,24,25,25,26,26,27,27,28,28],"right_children":[2,4,6,8,10,12,14,16,18,20,22,-1,24,26,28,30,32,34,36,38,40,42,44,46,48,50,52,54,56,-1,-1,-1,-1,-1,-1,-1,-1,-1,-1,-1,-1,-1,-1,-1,-1,-1,-1,-1,-1,-1,-1,-1,-1,-1,-1,-1,-1],"split_conditions":[1.5578824E2,3E0,5E0,7E0,1E0,4E0,3E0,3E0,1E1,1E1,1.4972902E1,4.963109E0,4E0,6E0,4E0,1.4972902E1,2E0,2E0,1.2E1,9E0,4E0,5E0,1.5638766E1,1E0,1.624E2,1.5114238E2,1.5114238E2,1.5639394E2,5E0,9.0345985E-1,3.2098043E0,1.8877645E-1,1.8496042E0,-5.245645E-1,1.1501476E0,-1.31909E-1,1.65262E-1,-1.3836798E-1,3.1001857E-1,-1.1366302E-1,-3.036414E-1,-8.839377E-2,-2.750626E-1,1.1035895E-1,-4.555526E-2,3.0356958E0,1.6709431E0,8.646478E-1,1.4408867E0,-1.9279756E-1,1.9358961E-1,2.4444163E-3,-3.0030128E-1,-1.9548188E-1,-9.4421977E-1,1.9958141E-1,-1.7183684E-1],"split_indices":[3,1,1,0,2,1,2,0,0,0,5,0,0,0,0,5,1,1,0,0,1,2,5,2,4,4,4,4,0,0,0,0,0,0,0,0,0,0,0,0,0,0,0,0,0,0,0,0,0,0,0,0,0,0,0,0,0],"split_type":[0,0,0,0,0,0,0,0,0,0,0,0,0,0,0,0,0,0,0,0,0,0,0,0,0,0,0,0,0,0,0,0,0,0,0,0,0,0,0,0,0,0,0,0,0,0,0,0,0,0,0,0,0,0,0,0,0],"sum_hessian":[1.27014E5,1.19737E5,7.277E3,1.141E4,1.08327E5,7.122E3,1.55E2,6.15E2,1.0795E4,2.0139E4,8.8188E4,3E0,7.119E3,9.1E1,6.4E1,1.15E2,5E2,1.14E3,9.655E3,1.7644E4,2.495E3,3.0384E4,5.7804E4,6E1,7.059E3,7.3E1,1.8E1,3.1E1,3.3E1,2.4E1,9.1E1,7.1E1,4.29E2,5.87E2,5.53E2,8.265E3,1.39E3,1.6701E4,9.43E2,1.029E3,1.466E3,2.8911E4,1.473E3,8.22E3,4.9584E4,9E0,5.1E1,6.864E3,1.95E2,2E1,5.3E1,3E0,1.5E1,2.7E1,4E0,1.5E1,1.8E1],"tree_param":{"num_deleted":"0","num_feature":"7","num_nodes":"57","size_leaf_vector":"1"}},{"base_weights":[3.5454894E-3,-4.7336814E-1,7.8497505E0,-3.2417822E-1,-1.1172602E0,8.0317E0,-5.0842524E-1,7.4639554E0,-4.674386E-1,-3.8667646E-1,-2.6923068E0,6.905791E0,8.787647E0,-2.640667E-1,-3.4187222E0,-3.0398464E0,1.4136798E1,-5.7144123E-1,1.5096028E0,2.3731253E1,-4.1018254E-1,-1.7681413E0,-3.0045936E0,1.1047829E1,6.458362E0,8.495504E0,1.7646994E1,-1.9338036E0,2.4517545E-1,-5.077492E-1,-2.3016334E0,1.3363599E0,-4.6700293E-1,2.7243495E0,1.2381707E0,-1.1515912E-1,-2.9532561E-2,7.1141165E-1,-2.755348E-1,4.9866182E-1,2.471397E0,5.341613E-3,-1.4608009E-1,-2.2771554E-1,-1.472747E-1,-3.4516254E-1,-2.3238635E-1,1.3725532E0,-1.1397083E-1,5.8749056E-1,8.3416176E-1,2.7968366E0,8.417611E-1,2.5969956E0,1.1600335E0,-5.2017726E-2,-3.3168313E-1,4.487764E-1,-2.6132196E-2,-3.0822134E-2,-2.827148E-1],"categories":[],"categories_nodes":[],"categories_segments":[],"categories_sizes":[],"default_left":[0,0,0,0,0,0,0,0,0,0,0,0,0,0,0,0,0,0,0,0,0,0,0,0,0,0,0,0,0,0,0,0,0,0,0,0,0,0,0,0,0,0,0,0,0,0,0,0,0,0,0,0,0,0,0,0,0,0,0,0,0],"id":27,"left_children":[1,3,5,7,9,11,13,15,17,19,21,23,25,27,29,31,33,35,37,39,41,43,45,47,49,51,53,55,57,-1,59,-1,-1,-1,-1,-1,-1,-1,-1,-1,-1,-1,-1,-1,-1,-1,-1,-1,-1,-1,-1,-1,-1,-1,-1,-1,-1,-1,-1,-1,-1],"loss_changes":[4.752891E5,1.1501936E4,1.10721875E4,1.0846931E5,2.5917398E4,6.001875E3,1.1003755E2,1.2312139E5,1.9629105E4,8.733462E3,2.054461E3,5.240125E3,1.0870625E4,1.23767685E2,1.0549393E1,1.8326248E4,2.436836E4,1.4527154E4,1.14060695E5,1.5307031E2,7.4882188E3,2.680459E2,1.6148555E3,9.0880625E3,2.795789E3,6.0198125E3,6.4927617E3,6.474751E1,2.4184508E2,0E0,8.556717E0,0E0,0E0,0E0,0E0,0E0,0E0,0E0,0E0,0E0,0E0,0E0,0E0,0E0,0E0,0E0,0E0,0E0,0E0,0E0,0E0,0E0,0E0,0E0,0E0,0E0,0E0,0E0,0E0,0E0,0E0],"parents":[2147483647,0,0,1,1,2,2,3,3,4,4,5,5,6,6,7,7,8,8,9,9,10,10,11,11,12,12,13,13,14,14,15,15,16,16,17,17,18,18,19,19,20,20,21,21,22,22,23,23,24,24,25,25,26,26,27,27,28,28,30,30],"right_children":[2,4,6,8,10,12,14,16,18,20,22,24,26,28,30,32,34,36,38,40,42,44,46,48,50,52,54,56,58,-1,60,-1,-1,-1,-1,-1,-1,-1,-1,-1,-1,-1,-1,-1,-1,-1,-1,-1,-1,-1,-1,-1,-1,-1,-1,-1,-1,-1,-1,-1,-1],"split_conditions":[1.5578824E2,1E1,5E0,3E0,4E0,2E0,1.5874243E2,2E0,9E0,1E0,1.1908347E1,6E0,1.624E2,1.5114238E2,1E0,5E0,1E0,4E0,4E0,1.1619167E1,3.706931E1,1.1E1,3.706931E1,1.57E2,1.1E1,3E0,8E0,4E0,1.5234921E2,-5.077492E-1,3E0,1.3363599E0,-4.6700293E-1,2.7243495E0,1.2381707E0,-1.1515912E-1,-2.9532561E-2,7.1141165E-1,-2.755348E-1,4.9866182E-1,2.471397E0,5.341613E-3,-1.4608009E-1,-2.2771554E-1,-1.472747E-1,-3.4516254E-1,-2.3238635E-1,1.3725532E0,-1.1397083E-1,5.8749056E-1,8.3416176E-1,2.7968366E0,8.417611E-1,2.5969956E0,1.1600335E0,-5.2017726E-2,-3.3168313E-1,4.487764E-1,-2.6132196E-2,-3.0822134E-2,-2.827148E-1],"split_indices":[3,0,1,1,1,2,4,1,0,1,5,0,4,4,2,0,2,1,1,5,5,0,5,4,0,0,0,0,4,0,0,0,0,0,0,0,0,0,0,0,0,0,0,0,0,0,0,0,0,0,0,0,0,0,0,0,0,0,0,0,0],"split_type":[0,0,0,0,0,0,0,0,0,0,0,0,0,0,0,0,0,0,0,0,0,0,0,0,0,0,0,0,0,0,0,0,0,0,0,0,0,0,0,0,0,0,0,0,0,0,0,0,0,0,0,0,0,0,0,0,0,0,0,0,0],"sum_hessian":[1.27014E5,1.19737E5,7.277E3,9.7214E4,2.2523E4,7.122E3,1.55E2,1.755E3,9.5459E4,1.5387E4,7.136E3,2.865E3,4.257E3,1.44E2,1.1E1,6.82E2,1.073E3,9.0689E4,4.77E3,1.4E1,1.5373E4,1.804E3,5.332E3,2.77E2,2.588E3,4.123E3,1.34E2,3.3E1,1.11E2,3E0,8E0,6.1E1,6.21E2,1.25E2,9.48E2,2.9243E4,6.1446E4,2.061E3,2.709E3,1E0,1.3E1,1.0667E4,4.706E3,6.6E2,1.144E3,3.216E3,2.116E3,2.27E2,5E1,1.979E3,6.09E2,1.5E1,4.108E3,5.5E1,7.9E1,1.7E1,1.6E1,1.1E1,1E2,2E0,6E0],"tree_param":{"num_deleted":"0","num_feature":"7","num_nodes":"61","size_leaf_vector":"1"}},{"base_weights":[3.3189899E-3,-4.2597285E-1,7.066048E0,-8.5067075E-1,-2.0397802E-1,7.22994E0,-4.6259752E-1,-1.8510368E0,-7.3842525E-1,2.4407896E-1,-7.6302844E-1,4.5279336E0,7.2075486E0,-2.3739122E-1,-3.1452906E0,-3.157175E0,-1.1008538E0,-4.4178164E-1,-1.2144709E0,5.8547777E-1,-1.0459757E0,8.1179297E-1,-8.747486E-1,9.479243E0,6.8955994E0,4.558251E-1,-1.255568E0,-4.69668E-1,-2.1063073E0,-5.6018096E-1,-1.773589E-1,-1.8264614E-1,4.14525E-2,1.8505055E0,-5.4213386E-2,-1.3054918E-1,3.9924988E-1,1.9064532E-1,-3.2410663E-2,-1.4901374E-1,-9.0829864E-2,-3.545869E-1,2.4085248E-1,-1.4489071E-1,-4.5526054E-2,1.5095116E0,8.579734E-1,6.376149E-1,8.699083E-1,4.0199044E-3,5.2000946E-1,-4.3141028E-1,-2.0815486E-2,-2.8767316E-2,-2.584821E-1],"categories":[],"categories_nodes":[],"categories_segments":[],"categories_sizes":[],"default_left":[0,0,0,0,0,0,0,0,0,0,0,0,0,0,0,0,0,0,0,0,0,0,0,0,0,0,0,0,0,0,0,0,0,0,0,0,0,0,0,0,0,0,0,0,0,0,0,0,0,0,0,0,0,0,0],"id":28,"left_children":[1,3,5,7,9,11,13,15,17,19,21,-1,23,25,27,29,31,33,35,37,39,41,43,45,47,49,51,-1,53,-1,-1,-1,-1,-1,-1,-1,-1,-1,-1,-1,-1,-1,-1,-1,-1,-1,-1,-1,-1,-1,-1,-1,-1,-1,-1],"loss_changes":[3.8510894E5,1.1288814E4,8.983531E3,4.6139453E3,1.969744E4,5.7423125E3,9.35022E1,4.0589512E3,5.2185215E3,1.9225965E4,6.1559453E3,0E0,4.98025E3,1.0291576E2,9.449753E0,5.104198E3,2.898125E3,4.3305836E4,6.7295137E3,4.147533E4,5.572588E2,1.6137223E4,7.8675117E3,4.1996562E3,5.8127812E3,1.7134122E2,1.8811139E2,0E0,7.0885887E0,0E0,0E0,0E0,0E0,0E0,0E0,0E0,0E0,0E0,0E0,0E0,0E0,0E0,0E0,0E0,0E0,0E0,0E0,0E0,0E0,0E0,0E0,0E0,0E0,0E0,0E0],"parents":[2147483647,0,0,1,1,2,2,3,3,4,4,5,5,6,6,7,7,8,8,9,9,10,10,12,12,13,13,14,14,15,15,16,16,17,17,18,18,19,19,20,20,21,21,22,22,23,23,24,24,25,25,26,26,28,28],"right_children":[2,4,6,8,10,12,14,16,18,20,22,-1,24,26,28,30,32,34,36,38,40,42,44,46,48,50,52,-1,54,-1,-1,-1,-1,-1,-1,-1,-1,-1,-1,-1,-1,-1,-1,-1,-1,-1,-1,-1,-1,-1,-1,-1,-1,-1,-1],"split_conditions":[1.5578824E2,1.4972902E1,5E0,1.1619167E1,3.706931E1,4E0,1.5874243E2,4E0,6E0,5E0,2E0,4.5279336E0,6E0,3E0,1E0,4E0,4E0,3E0,1.3323612E1,4E0,1.5638766E1,4E0,4E0,1E0,1.1E1,1.5722266E2,1.5583891E2,-4.69668E-1,3E0,-5.6018096E-1,-1.773589E-1,-1.8264614E-1,4.14525E-2,1.8505055E0,-5.4213386E-2,-1.3054918E-1,3.9924988E-1,1.9064532E-1,-3.2410663E-2,-1.4901374E-1,-9.0829864E-2,-3.545869E-1,2.4085248E-1,-1.4489071E-1,-4.5526054E-2,1.5095116E0,8.579734E-1,6.376149E-1,8.699083E-1,4.0199044E-3,5.2000946E-1,-4.3141028E-1,-2.0815486E-2,-2.8767316E-2,-2.584821E-1],"split_indices":[3,5,1,5,5,1,4,1,0,1,0,0,0,2,2,0,0,1,3,0,5,1,0,2,0,4,4,0,0,0,0,0,0,0,0,0,0,0,0,0,0,0,0,0,0,0,0,0,0,0,0,0,0,0,0],"split_type":[0,0,0,0,0,0,0,0,0,0,0,0,0,0,0,0,0,0,0,0,0,0,0,0,0,0,0,0,0,0,0,0,0,0,0,0,0,0,0,0,0,0,0,0,0,0,0,0,0,0,0,0,0,0,0],"sum_hessian":[1.27014E5,1.19737E5,7.277E3,4.1102E4,7.8635E4,7.122E3,1.55E2,4.145E3,3.6957E4,4.3651E4,3.4984E4,3E0,7.119E3,1.44E2,1.1E1,1.511E3,2.634E3,2.277E4,1.4187E4,3.4517E4,9.134E3,2.317E3,3.2667E4,8.56E2,6.263E3,8.6E1,5.8E1,3E0,8E0,5.45E2,9.66E2,1.781E3,8.53E2,1.19E2,2.2651E4,1.3944E4,2.43E2,1.4075E4,2.0442E4,2.159E3,6.975E3,6.21E2,1.696E3,1.379E4,1.8877E4,1.16E2,7.4E2,4.866E3,1.397E3,8E1,6E0,1.4E1,4.4E1,2E0,6E0],"tree_param":{"num_deleted":"0","num_feature":"7","num_nodes":"55","size_leaf_vector":"1"}},{"base_weights":[3.0542135E-3,-3.833687E-1,6.3605022E0,-7.452062E-1,-1.5645173E-1,6.508124E0,-4.207298E-1,-1.1861894E0,-4.081734E-1,4.6860358E-1,-4.6675825E-1,5.480444E0,7.1983128E0,-7.1494654E-2,-2.0866497E0,-8.4461766E-1,-2.4301994E0,3.3149E-1,-1.0885296E0,-9.722152E-1,1.2189597E0,1.4173828E0,-6.1156136E-1,7.177284E0,4.5962977E0,6.935105E0,1.5185509E1,-4.1753465E-1,1.0933149E1,-1.0536447E1,3.1268814E-1,-4.8555095E-2,-1.4051844E-1,-3.3610353E-1,-1.2504202E-3,2.1030636E-1,-8.235319E-2,2.2391036E-1,-1.3229208E-1,-6.0690414E-2,-2.3469377E-1,7.0272213E-1,2.27392E-2,3.9529579E0,1.0774703E-1,-5.155778E-2,-1.5935074E-1,8.1650823E-1,2.5222647E-1,3.6199254E-1,6.634344E-1,2.9270809E0,6.879141E-1,2.2663248E0,9.761273E-1,2.0920669E-1,-1.6821857E-1,-8.945389E-1,2.0541124E0,-1.2268181E0,-4.7153187E-1,9.653638E-1,-2.2993918E-1],"categories":[],"categories_nodes":[],"categories_segments":[],"categories_sizes":[],"default_left":[0,0,0,0,0,0,0,0,0,0,0,0,0,0,0,0,0,0,0,0,0,0,0,0,0,0,0,0,0,0,0,0,0,0,0,0,0,0,0,0,0,0,0,0,0,0,0,0,0,0,0,0,0,0,0,0,0,0,0,0,0,0,0],"id":29,"left_children":[1,3,5,7,9,11,13,15,17,19,21,23,25,27,29,31,33,35,37,39,41,43,45,47,49,51,53,55,57,59,61,-1,-1,-1,-1,-1,-1,-1,-1,-1,-1,-1,-1,-1,-1,-1,-1,-1,-1,-1,-1,-1,-1,-1,-1,-1,-1,-1,-1,-1,-1,-1,-1],"loss_changes":[3.120356E5,9.831219E3,7.2884375E3,6.858449E3,1.4273643E4,5.0128438E3,9.061126E1,8.492492E3,1.3164475E4,2.6395824E4,1.3417802E4,4.266742E3,8.84625E3,4.9961108E2,5.506903E2,3.1566094E3,9.690512E3,2.564888E4,1.0630799E4,4.197482E3,9.245796E4,4.5428797E4,4.303416E3,4.485664E3,3.7309102E3,4.953625E3,5.2545176E3,4.06588E2,9.477184E2,2.635498E0,5.5898224E2,0E0,0E0,0E0,0E0,0E0,0E0,0E0,0E0,0E0,0E0,0E0,0E0,0E0,0E0,0E0,0E0,0E0,0E0,0E0,0E0,0E0,0E0,0E0,0E0,0E0,0E0,0E0,0E0,0E0,0E0,0E0,0E0],"parents":[2147483647,0,0,1,1,2,2,3,3,4,4,5,5,6,6,7,7,8,8,9,9,10,10,11,11,12,12,13,13,14,14,15,15,16,16,17,17,18,18,19,19,20,20,21,21,22,22,23,23,24,24,25,25,26,26,27,27,28,28,29,29,30,30],"right_children":[2,4,6,8,10,12,14,16,18,20,22,24,26,28,30,32,34,36,38,40,42,44,46,48,50,52,54,56,58,60,62,-1,-1,-1,-1,-1,-1,-1,-1,-1,-1,-1,-1,-1,-1,-1,-1,-1,-1,-1,-1,-1,-1,-1,-1,-1,-1,-1,-1,-1,-1,-1,-1],"split_conditions":[1.5578824E2,2E0,5E0,1.5638766E1,3E0,2E0,1.57E2,1.4972902E1,3.706931E1,1.4972902E1,2E0,8E0,1.624E2,1.5639394E2,2E0,6E0,8E0,4E0,2E0,1.2078554E1,1.5638766E1,3E0,5E0,1.5722266E2,1.1E1,2E0,8E0,3E0,3E0,1.5874243E2,2E0,-4.8555095E-2,-1.4051844E-1,-3.3610353E-1,-1.2504202E-3,2.1030636E-1,-8.235319E-2,2.2391036E-1,-1.3229208E-1,-6.0690414E-2,-2.3469377E-1,7.0272213E-1,2.27392E-2,3.9529579E0,1.0774703E-1,-5.155778E-2,-1.5935074E-1,8.1650823E-1,2.5222647E-1,3.6199254E-1,6.634344E-1,2.9270809E0,6.879141E-1,2.2663248E0,9.761273E-1,2.0920669E-1,-1.6821857E-1,-8.945389E-1,2.0541124E0,-1.2268181E0,-4.7153187E-1,9.653638E-1,-2.2993918E-1],"split_indices":[3,2,1,5,2,2,4,5,5,5,0,0,4,4,0,0,0,1,0,5,5,1,2,4,0,0,0,0,0,4,2,0,0,0,0,0,0,0,0,0,0,0,0,0,0,0,0,0,0,0,0,0,0,0,0,0,0,0,0,0,0,0,0],"split_type":[0,0,0,0,0,0,0,0,0,0,0,0,0,0,0,0,0,0,0,0,0,0,0,0,0,0,0,0,0,0,0,0,0,0,0,0,0,0,0,0,0,0,0,0,0,0,0,0,0,0,0,0,0,0,0,0,0,0,0,0,0,0,0],"sum_hessian":[1.27014E5,1.19737E5,7.277E3,4.6148E4,7.3589E4,7.122E3,1.55E2,1.999E4,2.6158E4,2.4413E4,4.9176E4,2.865E3,4.257E3,1.29E2,2.6E1,1.5685E4,